1887 100
</s> 0.004003 0.004419 -0.003830 -0.003278 0.001367 0.003021 0.000941 0.000211 -0.003604 0.002218 -0.004356 0.001250 -0.000751 -0.000957 -0.003316 -0.001882 0.002579 0.003025 0.002969 0.001597 0.001545 -0.003803 -0.004096 0.004970 0.003801 0.003090 -0.000604 0.004016 -0.000495 0.000735 -0.000149 -0.002983 0.001312 -0.001337 -0.003825 0.004754 0.004379 -0.001095 -0.000226 0.000509 -0.003638 -0.004007 0.004555 0.000063 -0.002582 -0.003042 -0.003076 0.001697 0.000201 0.001331 -0.004214 -0.003808 -0.000130 0.001144 0.002550 -0.003170 0.004080 0.000927 0.001120 -0.000608 0.002986 -0.002288 -0.002097 0.002158 -0.000753 0.001031 0.001805 -0.004089 -0.001983 0.002914 0.004232 0.003932 -0.003047 -0.002108 -0.000909 0.002001 -0.003788 0.002998 0.002788 -0.001599 -0.001552 -0.002238 0.004229 0.003912 -0.001180 0.004215 0.004820 0.001815 0.004983 -0.003111 -0.001532 -0.002107 -0.002907 0.002815 0.001579 0.000425 -0.002194 0.001524 0.003059 0.000194 
the 1.518021 -0.612076 -0.806318 2.080053 0.015390 -0.816676 0.414457 0.889354 0.050116 -0.236828 -0.531666 -0.710058 -1.112941 0.788278 -0.557763 0.537438 -1.341664 -0.435480 0.313012 -0.533860 0.311152 -0.537652 0.211500 -0.761519 -0.298391 -0.482889 0.744790 0.397585 1.662366 -0.290471 0.468580 -0.294751 0.308953 -0.082505 -0.545807 1.923268 -1.337692 0.198835 0.750800 -1.196834 -0.463538 0.288085 0.001989 -0.494933 0.190143 -0.466082 -0.017343 0.263465 -0.466617 -0.118264 -0.336165 -0.115479 0.617291 0.111393 0.935207 0.554436 -0.890009 0.531846 -0.430909 0.282358 0.171999 0.362569 0.075416 -0.161977 0.633254 -0.825168 -1.410594 0.564298 1.255273 -0.075877 -0.030500 0.120746 -0.344758 -0.458354 0.320835 -0.554097 0.601884 0.551073 -0.572726 -1.166297 -0.692176 -0.365722 -0.812585 0.372016 -0.086387 0.943691 0.112879 0.942414 0.432458 -0.960487 0.794992 1.011719 0.361332 -0.510571 0.981853 0.852491 0.413633 0.338662 -0.784710 -0.159486 
and -0.254675 -0.917427 -0.383776 0.828733 -1.429289 -0.931663 0.353160 0.372073 0.436023 -1.090009 0.268044 -1.414010 -0.594067 1.093896 0.229742 -1.430072 -1.828176 0.416728 -0.920786 -0.213915 0.948592 0.185035 0.267173 0.085283 -0.526153 0.380641 0.076472 -0.183795 -0.140059 -0.467310 -0.108680 -0.225717 0.571889 -0.728842 -0.570683 0.165004 -0.406174 -0.118825 -0.421787 -0.538248 -1.095758 0.157364 -0.017460 -0.033558 -0.381675 -0.448595 0.309648 -0.425580 1.024007 0.255293 -0.105705 -0.206894 0.755718 -0.819802 0.097328 1.664828 0.954468 -0.518516 -0.814460 1.163766 -0.637101 0.094949 -0.461782 -0.269044 -0.635217 0.277099 0.704506 0.823056 0.461471 -0.459429 -0.427220 0.445373 -0.035890 0.548240 0.095923 0.639043 0.751726 -0.658049 -1.355982 -0.506076 -0.845213 -0.147267 -0.852558 0.426429 -0.498581 0.452441 0.244781 -0.179538 -0.333730 -1.198913 0.063600 0.034923 -0.150497 -0.478783 -0.237434 0.541747 0.259404 0.290440 0.510758 0.339899 
of 0.843916 0.375987 0.334685 0.366641 0.456313 0.586301 0.259002 0.473738 -0.078925 -0.371036 0.388046 -0.496940 0.327523 -0.444331 -0.315372 -0.577288 0.119292 -1.178715 0.221238 -0.411409 0.426628 0.304798 -0.223149 0.415298 -1.560457 0.274067 0.493883 -0.508754 -0.160949 -0.460157 -0.015512 1.601604 0.022021 -0.238846 -1.372679 1.557018 0.250152 -0.972113 0.198824 0.537331 -0.433771 -0.471942 1.524513 1.983964 -0.905529 -0.612538 0.098398 0.676075 1.284947 0.445814 0.353763 -0.657866 0.091607 0.971858 -0.226975 0.566899 1.337255 -0.435217 -1.704613 1.657333 -0.006235 0.273579 -0.241978 -0.473845 0.194734 1.085813 -0.211436 0.875176 0.862794 -1.206990 -0.766184 0.906756 0.374876 1.067042 0.017623 -0.501614 0.471702 -0.987468 -0.634231 -0.138248 -0.616981 -0.468519 -0.462959 -1.257420 -0.584000 1.160762 -0.386846 -0.255834 -0.258060 0.014049 0.236964 -0.221963 0.149603 0.322850 0.255099 1.011785 -1.169047 -0.073390 -0.096636 -1.031893 
to 0.269913 -0.367951 -0.555622 1.489767 0.651963 0.332962 0.445450 1.428899 1.604429 -0.174434 0.262826 -0.341789 0.346863 -0.520862 -0.875986 -0.168428 -1.496714 -0.844507 -0.598602 -1.271427 -0.161397 1.038968 -0.028723 -0.516656 -0.245387 1.251071 0.045278 -0.033613 0.438093 -1.818388 0.179413 -0.128558 0.551657 0.519177 -0.686047 -0.647823 0.075882 0.677272 0.454394 0.195698 -0.333471 -0.100796 -0.183590 0.315954 0.249604 -1.725386 0.838676 0.116216 0.314441 0.099656 -1.060021 0.525201 0.761779 0.110803 -0.784086 1.192842 0.092448 0.230716 -1.605280 0.938495 -1.366217 -0.307253 -0.870082 -1.114937 -0.484100 0.156415 0.962940 -0.438602 0.468702 -0.353032 -0.951049 -0.952823 0.379996 1.018476 -0.181149 0.825759 -0.976155 0.299102 -0.844588 1.292834 -1.303901 -1.222904 0.910126 0.122193 -0.461511 0.314276 1.268454 -0.695334 -0.763589 -0.814397 1.196430 0.111913 0.266282 -0.007671 0.485714 0.080231 -0.833395 -0.913011 -1.881068 0.656408 
he -0.234557 -0.270133 -0.345072 1.371858 0.979064 -0.270645 0.602900 0.949636 0.305731 1.039973 0.159189 -2.503743 -0.525749 -1.071055 -0.451421 0.161439 -0.143671 0.462319 -0.785158 -0.182610 -0.355612 -1.728143 -0.234477 -0.872683 0.571019 -1.569346 -0.205353 0.520800 0.530295 1.233529 1.413449 -1.452063 -0.208291 0.427681 -1.365190 1.150775 -1.186256 -0.632946 0.059394 0.109348 -1.101352 -0.448767 1.068155 -0.211912 -0.203202 -0.881213 0.416113 0.411916 1.531700 -0.695730 -1.438219 -1.104905 0.226539 0.231969 -0.572382 0.450732 -1.405823 -0.063552 -0.633654 1.489801 -0.199771 -1.425369 -0.124922 -0.013027 -1.248900 -0.970758 0.899517 -0.238364 -0.079954 0.417133 -0.569989 0.159299 -0.119735 0.556527 0.434821 -0.027935 -0.319517 0.296540 -0.861950 -0.788365 0.156014 -0.109045 -0.899522 0.162101 0.337492 0.919594 0.082391 -1.085548 1.190479 0.031861 -0.114977 -0.986524 0.090428 -0.605893 1.175309 0.070189 1.113527 0.977396 -0.660259 1.020182 
a 1.687815 -1.267962 0.682726 1.880194 -0.169584 0.519401 -0.906577 0.839216 0.377716 -0.483506 -0.241014 -0.718534 -0.578592 0.261017 0.538996 -0.137828 -0.426324 0.287018 0.387541 0.189775 0.199984 -0.005409 0.664595 -0.571959 -0.059882 0.185927 -0.065960 1.138425 0.814088 -0.705699 1.479153 -0.098903 -0.334397 -0.818209 -0.763330 0.186756 -0.269405 1.556961 2.018167 -1.028049 -0.277332 -1.382503 0.091035 1.295998 0.317213 1.070091 -0.707478 0.290224 0.219099 -0.675807 -0.590051 0.261407 -0.338256 -0.411895 1.341964 1.212923 -1.398855 -0.054081 -1.920932 -0.232140 -0.192836 0.152970 -0.098503 -0.167795 -0.015406 -1.202827 -0.176587 1.289931 -0.698238 0.649610 -1.517647 0.465297 -0.532311 0.188663 -1.805429 -0.460878 0.160538 0.920908 0.014825 -0.054328 -1.200342 -1.295174 -0.020190 1.111935 -1.133410 0.636056 0.178249 -0.063331 0.588327 -0.998094 0.394575 0.805231 -0.530932 -1.706244 0.146035 0.054783 0.681619 0.516765 1.194368 -1.730721 
was 2.221661 0.453054 -0.018327 2.013715 0.084058 -0.329411 -0.019922 -0.579340 0.476226 -0.648255 -0.341753 -0.955209 -0.172974 0.756023 -0.029913 0.432586 0.466962 -2.326384 -0.605931 -0.043538 -0.298464 -0.903447 0.849945 0.248407 1.092484 -0.124356 0.640059 -0.584311 -1.345411 -1.184373 0.152075 1.117033 1.053808 0.542223 -0.449182 -0.017261 -0.443368 -1.122305 0.516819 0.874565 0.008050 0.353050 -0.886636 -1.008276 -0.041083 -0.418171 -0.275633 1.489572 -1.131447 -0.883683 -1.095721 0.055363 -0.269090 -2.015228 -0.569777 -1.018729 -0.072842 -0.717938 -0.279695 0.446504 -0.867736 -0.600126 -0.443679 0.624219 -0.500315 0.441717 -0.472894 -0.843751 -0.531787 -1.216269 0.472158 1.843247 0.385503 0.929068 -0.176602 -0.233744 2.113497 0.973564 -0.433095 0.214973 -1.223783 -1.907575 0.020766 -1.074593 -0.451933 0.381448 0.394652 1.467304 0.562229 -0.247894 1.565475 0.785499 -0.489605 0.875898 -0.749426 -1.174205 -0.464928 -0.160001 1.117184 1.210786 
his 0.834469 -0.884238 -0.071355 0.599626 -0.473068 0.549146 0.099088 0.074240 0.864181 0.390775 -2.527633 -0.125437 -0.691724 -1.345489 0.873474 -1.068362 -0.476142 0.985902 -0.007516 -1.824947 -0.035371 0.868309 -1.454729 -1.311281 -1.154283 -0.971014 0.013144 -0.886273 1.242986 1.661993 0.342042 1.702165 -0.428807 1.337838 -0.463068 0.153824 0.986667 -1.266635 -1.210523 -1.450663 -0.740587 -0.090637 -0.307646 -0.324710 -0.414988 -0.811881 -0.796958 0.525785 0.512541 -0.077323 0.237511 0.100218 -0.204473 -1.107824 0.470329 2.607350 0.210888 -0.190348 -0.730438 0.896038 0.464833 0.343527 -0.873439 -0.754491 1.149291 -2.003613 -1.475937 -0.503214 1.272512 1.299464 -0.851912 -0.026203 0.911385 -0.187784 0.172491 -0.549451 1.093573 0.891333 -0.030925 -0.676594 -1.451366 0.187160 -0.822495 1.040203 -1.133569 0.686486 0.713146 -0.074245 0.914373 0.293541 0.071717 -0.127822 0.229501 0.268431 1.928125 3.119579 0.870553 1.100146 0.175387 0.070784 
in 1.735022 0.598233 0.780536 -0.524158 0.512177 -0.277562 1.991819 -0.768899 1.388589 -1.301409 -0.121865 -0.329187 0.827599 -0.605656 0.047984 -0.736156 0.046215 -0.518595 -2.143141 -1.304827 -0.230031 0.981081 0.586495 -2.073037 0.108600 0.369500 0.690814 -1.315246 0.193460 -0.545889 0.171753 0.360571 1.106632 0.150501 1.283516 0.529790 0.457307 0.716303 -0.436822 -0.458813 -0.634068 -0.263387 -0.689457 0.685934 -2.103669 0.110657 0.698589 0.847054 0.036350 1.437540 0.258607 -0.994876 0.283385 2.741565 -0.130662 0.755732 0.180278 -0.136774 -1.973601 0.014864 -1.936547 -1.850949 -0.112798 -0.676072 -0.256220 0.148774 0.129020 -0.871876 -0.152706 0.058715 -0.437827 -0.679237 0.123749 0.180578 -0.806678 0.649528 0.132900 0.306957 -1.189450 0.483819 -0.997439 -0.181887 0.144299 0.533521 -0.313022 1.483350 -0.684424 0.544516 0.038578 1.387226 -0.515077 1.567070 0.745240 0.134816 -0.593303 -0.908868 -0.195024 0.135480 -1.885973 -0.792434 
by 0.131150 -0.668198 -0.262266 0.980257 0.449393 -0.145354 0.303483 1.004222 -1.232574 0.386022 0.072777 -1.571812 -0.067298 0.279998 0.391822 -1.864365 -1.143243 -0.142641 -1.041901 0.806281 1.574799 0.932977 -0.451858 -0.447228 -0.998877 1.432585 0.386327 0.526010 -0.661795 0.627116 0.569201 0.873152 -0.147531 0.195096 0.109920 1.901645 -0.358363 -0.296138 0.726963 -0.036765 -0.441755 0.101330 2.034542 1.140636 -0.375711 0.985995 0.927861 0.263865 2.055529 1.350995 -0.191945 -0.698344 1.689815 0.907825 -0.654811 -0.342217 1.406509 0.337424 -0.596430 -0.934539 -0.529324 0.815281 -0.098023 -0.949503 -0.108325 -1.008636 1.150031 0.248650 1.031624 -0.189337 1.580405 -0.502014 0.445853 0.381281 -0.356132 -0.170226 -0.157079 -0.856866 0.549542 0.418994 -0.954207 -0.601485 0.219113 0.301254 -0.252982 1.265653 -1.544239 -1.537705 -0.439864 -1.410299 -1.021029 1.324365 0.857876 -0.584088 -1.117471 -0.303808 -1.071788 -0.140289 0.007245 -1.218082 
him -0.147401 -1.946158 0.589684 0.507097 0.864658 -0.748124 0.700917 -1.003901 1.379054 1.607738 -1.006632 -0.203255 0.534118 0.669905 1.374288 -1.159258 0.843309 -0.975154 -0.669153 2.369578 -0.908165 -0.483234 1.409836 -1.389048 -0.427607 0.019999 -0.822493 0.198922 -0.495170 0.275299 0.790798 0.866222 0.777779 0.203947 -1.020568 0.369389 0.254631 0.487335 -0.290138 -1.195886 0.863344 -0.627035 -0.997537 0.728622 -0.788211 1.026433 0.748391 0.394999 0.597204 -0.210081 -1.365932 -0.803535 -0.101144 -0.187988 -0.183871 0.339587 -1.052521 -0.562413 -0.550303 0.076617 -0.908552 -0.131217 0.052788 1.947795 0.245013 -0.943823 -1.798896 0.691977 0.595032 1.058527 -1.318581 0.093284 -0.456617 0.004439 0.737705 0.330410 0.221679 1.183101 0.229185 -0.573591 -0.398756 1.078776 -0.079452 0.013849 0.628412 -0.200112 -0.362280 -0.452371 0.850271 -1.447467 -0.500130 -0.611332 0.609919 -0.919263 1.347677 -0.417170 -0.201924 0.653118 -0.346585 0.824579 
son -1.338897 -0.797744 -0.194942 -0.421793 -1.043206 1.406976 0.397605 1.867908 -1.900264 -0.418794 1.071719 1.313467 1.154974 0.452930 1.391466 -1.315123 -1.153920 -0.869773 -1.285300 1.165546 1.822455 -1.323607 -0.189305 1.346569 -0.588829 -0.233264 0.253355 -0.628341 -0.338604 -0.066802 -2.638111 0.414670 0.745158 0.296334 -0.535932 2.866827 -1.177461 -0.792106 -0.172948 -0.391465 1.243527 1.663712 -0.471645 -0.433990 1.079969 -0.331672 1.176143 -0.802621 -0.643977 1.283836 2.483682 0.187749 0.554861 -0.275245 1.156583 -0.462778 -0.086605 -1.448802 0.169822 0.544527 -2.173051 -0.419297 2.192744 -0.549182 -0.773678 -0.477260 0.424125 -1.048588 0.842935 -0.415199 1.892803 -0.044533 0.510906 0.554148 1.657716 0.376905 0.625915 -0.162469 -2.875232 2.292341 -1.129827 -2.841222 -2.068660 -0.731079 2.818865 1.211726 0.073154 0.756450 -0.126277 2.059076 -1.301265 -0.659802 -1.871660 -1.392224 -2.338358 -0.779088 0.738886 1.160635 -0.937522 -0.475846 
had 1.363438 3.119187 -0.365944 -0.191247 0.990890 1.718209 -1.543708 -0.337082 -1.039473 0.983510 0.188522 0.583100 -1.410395 0.695556 -0.995286 -0.813528 0.041364 -1.409251 -0.661590 0.117104 0.490526 -1.461060 0.215181 -0.526658 0.224503 -0.247147 0.678088 -0.511510 -1.760060 -1.160245 0.529165 0.122140 -0.453125 0.214257 -0.056953 -1.600196 -1.322789 -1.390640 0.808647 0.821195 0.379551 -1.250567 0.219688 0.022025 -0.118297 -1.206747 -1.662950 2.166526 -0.846419 0.007070 -0.300913 0.649419 0.355336 -1.741474 -0.301668 0.291507 -0.115262 0.189351 -0.448457 0.001838 0.159177 0.739362 1.183529 -1.428121 -1.481495 0.226436 -2.176545 -0.230186 1.570821 -1.400778 0.941908 0.908663 -0.054660 1.554257 0.164832 1.779220 0.621232 1.203811 0.600130 0.782707 -3.439159 0.476587 0.665904 0.925896 1.078732 1.093431 -0.059189 -0.271559 0.508402 0.139327 -1.403141 2.608962 0.552292 0.104145 1.302097 0.123474 0.356336 0.833992 0.086209 -0.491277 
her -0.399828 -0.032696 -0.794705 1.080775 -0.127384 0.389614 1.223949 -0.690420 -0.198129 -0.052201 -2.153857 -1.497505 0.425017 0.391481 0.984045 -0.223992 0.116033 1.699851 -0.852075 -0.700291 -0.024322 0.253469 -0.493711 1.064496 -0.235980 0.263094 1.273251 0.937641 -0.502761 -0.060572 1.220202 1.544779 0.651152 1.750514 -2.154316 0.948938 0.962588 -0.163779 0.051540 -1.099334 -0.377464 -0.179532 -0.067131 -0.210340 -0.321153 1.546562 -1.883602 0.279969 0.717051 -2.039603 -1.872288 -2.024106 -0.940705 -0.463187 -0.089499 -0.186554 0.525696 -0.150310 -1.004357 -1.444525 0.020604 1.053994 0.492972 1.984809 0.072822 -1.705944 -2.111883 0.636924 -0.116487 -0.011293 -0.224244 0.045062 0.318115 -0.054920 0.297435 -1.795993 1.126198 1.691876 -0.799932 0.375601 -0.969407 0.610755 -0.551134 1.661371 -0.945576 0.156100 -0.126902 0.616172 1.049239 -0.206485 0.487776 -1.105232 0.643003 0.027937 1.883495 2.540881 0.337992 0.330127 0.677789 -0.939435 
that -0.248737 0.547145 1.367554 -0.517338 2.721617 -2.137405 -0.232702 -0.305795 0.604399 1.242584 0.930142 -0.113988 0.088748 0.162749 0.190880 -1.135517 -1.821220 -0.045416 0.155908 0.693579 0.222339 1.057564 -0.448473 -1.314229 -1.093140 0.661737 -0.259508 1.310605 -0.523368 -0.782703 1.826105 -1.139564 0.566381 -0.112769 -1.828118 -0.017061 -0.860460 0.026707 -0.231634 -1.145273 -1.757016 0.007092 -0.842058 0.747372 2.573375 0.799963 1.543112 -0.467207 -1.013344 1.624739 0.182736 0.274887 -0.950763 -0.101338 -0.367693 0.593868 -0.412058 0.744608 -0.104019 0.227504 1.625559 0.571962 -2.167660 -0.584211 0.047437 -2.257852 -0.910024 0.195464 1.546304 -0.891456 -0.915432 -2.762754 -0.054824 -0.699014 -1.546157 -0.593890 0.911504 -0.670717 -1.186912 0.427034 -0.266725 0.410253 0.938580 0.534101 -2.261247 -0.399300 -1.243416 0.177457 -0.709347 -0.503935 1.869110 -0.641066 -0.766449 -0.364228 -0.619845 0.057603 -0.851694 0.113547 0.246578 0.398556 
with 0.314313 1.447918 -0.162995 0.321219 0.607557 -0.491573 0.640369 1.335437 0.071067 0.831596 1.350468 -0.811145 -0.309062 0.796950 -0.494177 -0.533193 -1.852917 0.261976 -1.171302 -0.473808 1.285064 -1.347353 0.398895 -1.735164 1.121485 -0.755298 -0.249908 -1.134634 -0.264595 1.638960 0.802944 0.266354 1.133604 -0.371350 -0.952332 -1.013127 -0.347651 0.062950 -0.148488 -0.730066 0.206733 0.160696 -0.483635 -0.555820 1.007947 2.003936 -0.914368 0.477885 0.933251 1.058226 -0.655989 1.186837 1.462044 -0.452980 -2.229527 0.258645 0.745990 -0.319351 -0.631146 1.364780 0.362196 0.543913 -1.278104 0.283953 0.578601 0.617307 0.178716 -0.001236 1.048021 0.764227 -2.283011 -1.012919 -0.827449 -0.471449 -2.177052 0.956078 0.194420 -1.792350 -0.246690 -0.271376 -1.444170 -0.743127 0.004709 1.030848 0.934368 2.072849 0.527785 0.216944 -0.597161 0.201096 -0.350635 1.529027 0.384350 -0.644467 -0.564123 -0.357235 -0.004442 -0.220988 -0.983886 -0.215277 
from 0.466159 -0.761886 -1.119176 0.158343 -0.614485 -1.706261 0.977888 1.060573 0.453576 -0.967371 1.488658 0.003180 -0.378821 2.651619 -0.701289 -1.071668 0.474398 -0.598315 0.151027 -1.384021 0.540444 -0.138480 -0.636906 0.539237 0.033276 -0.102517 -0.987879 -1.181446 0.136624 -0.964622 0.633603 -1.395359 1.151038 -1.302951 -0.742014 0.715261 -0.183294 0.398796 -0.922791 -0.142881 1.199420 -0.870538 0.725149 2.019425 -1.744667 0.030575 1.433742 -0.605581 0.461995 0.773764 -1.148091 0.508890 0.548834 -0.637306 -0.751120 1.132703 0.592176 -1.321290 -0.255308 0.503562 -0.487466 0.755681 -0.579576 -0.488764 -1.313071 2.905289 -0.240813 -2.174343 2.248449 -1.571686 0.204081 -2.365917 -0.455473 0.104593 -0.161535 -2.076070 0.956677 0.217049 -0.314623 -0.036126 -0.752832 0.448548 1.794533 -0.492611 -0.006373 2.169833 -0.823917 -1.505997 0.064928 -0.833000 0.413691 0.122963 0.178348 2.194889 0.634025 -1.059311 -0.594270 -1.290445 -1.326019 -0.719303 
daughter -0.942412 -1.112468 -0.075207 -0.783656 -1.423841 -0.024897 -0.920177 2.022210 -0.174364 1.447941 0.412263 -0.551732 0.396552 -0.548234 0.400956 -0.134928 -1.083732 2.721137 -1.243583 0.853458 -0.120276 0.542462 0.455655 2.756294 0.885268 0.781639 -0.304579 -1.485723 2.743037 -1.344193 -0.636929 0.731393 -2.835606 -0.206393 0.624686 0.877039 -1.103148 -1.254453 -0.506070 1.503808 1.549977 -0.109039 0.304749 -0.249686 1.003498 -0.623222 1.271360 0.461259 -2.265778 -0.978593 -0.435475 1.378153 -0.237978 -3.593893 -2.028999 -2.571896 0.340560 -0.955572 -0.303058 0.044910 -0.209909 -0.898072 0.923393 -0.169626 -1.908045 -1.737401 -0.534008 -0.975968 2.134052 -0.121556 1.566857 0.196810 -1.811625 0.176946 1.333178 0.319922 0.506496 0.088209 -1.025368 1.046506 0.606989 -4.406446 0.037119 2.636868 0.492981 -1.012909 -0.869346 0.967621 -1.196004 0.588408 -1.977669 -0.098522 -1.520524 -1.291752 -2.108854 -0.709563 0.409523 -0.155568 -2.812441 -2.026435 
she -0.580839 0.652303 -1.736040 0.206989 -1.463843 -0.653350 1.432541 0.341805 0.372994 -1.211281 1.265136 -2.621677 -1.938246 -0.541916 -1.606366 -0.669630 -0.170696 1.350206 0.244628 -2.244927 -1.322582 -0.348807 0.421064 -0.850051 0.892089 -0.260367 1.533530 3.653315 0.079888 0.936604 -0.123243 -0.649678 -1.993991 1.097953 -0.463720 0.069162 0.431957 0.305539 0.098869 0.760581 -0.477129 -0.809884 0.860095 1.657472 -1.439124 -0.149071 0.544381 -0.851705 2.217247 0.658258 -1.657064 -2.696010 0.555117 -0.923693 -0.262754 0.784992 -1.027924 0.584243 -1.284074 1.783318 0.113632 -0.922196 0.479222 1.202840 0.798092 -2.372083 -0.150358 -1.416618 0.189956 0.166582 -0.467520 0.414523 1.011524 1.544618 1.107448 -1.782008 0.675049 1.821761 -1.089184 -0.090147 1.804600 -1.333632 -0.635329 1.380859 -0.553507 0.078469 -1.071584 -0.682158 0.972997 -0.338897 -0.350954 -1.447814 -0.732526 0.935653 1.605854 0.672397 0.922299 1.872493 -0.517574 0.400327 
they 0.047480 0.410293 0.152681 1.609246 0.765127 -0.892709 1.744312 1.623452 2.165097 0.496464 0.171969 -3.682597 0.211105 -0.093830 -1.242738 -0.825644 0.149162 -1.122450 1.653109 -1.246476 -1.022712 -1.285141 0.420061 -0.129752 -0.864436 -2.642943 0.290389 0.900879 -0.134599 -0.622568 2.415618 -2.142402 -0.641267 -0.040900 -1.028933 1.369471 -2.529727 0.441602 -1.394643 -0.428695 1.355299 1.030561 0.286343 0.634932 -0.961647 -1.762981 1.870010 2.439942 1.495632 -0.211914 0.319371 -0.401409 -0.258534 -1.732950 -2.084617 -0.969532 -0.180702 0.593684 -1.315678 1.244923 -0.525580 -1.994175 -0.735760 0.287489 0.694982 -0.795248 -0.617379 0.281125 -0.357819 -0.234202 -2.117759 1.418665 -0.089403 0.378246 1.151383 -0.333904 -0.074893 0.901163 -0.444509 -1.592506 0.404674 0.720202 -1.666887 0.108212 -0.048304 -1.826654 -0.101093 -1.642190 1.699679 -0.261692 1.595288 -0.244482 0.841068 2.310333 1.088191 -0.803295 -0.263797 1.516416 -1.200225 -0.677956 
it -1.689785 -1.248350 -0.290895 1.094262 0.085250 2.050077 0.470673 0.517246 0.439456 -0.142666 0.265802 -1.325943 0.165399 1.921311 0.596274 0.149834 1.373491 -0.145222 -0.570965 -0.090187 0.933641 0.171235 -0.751342 -1.094937 0.312651 -1.057395 -0.034977 0.704755 0.109754 0.770498 1.549544 1.192848 -1.330080 -1.058132 -1.073424 0.756401 -0.917217 -1.343042 -1.303648 -0.435417 -0.185977 -0.152496 -1.182934 0.254511 -0.050079 -0.363706 0.703130 -0.089773 -0.124462 -0.396133 -1.810541 -1.314447 -1.376509 -2.646075 1.042301 1.005192 -1.119439 0.764059 -0.554623 0.325751 -2.774116 1.087776 1.140088 0.393416 0.241178 -0.375724 0.232571 -1.047575 0.511584 0.275996 -0.212988 0.104106 0.375805 -0.260666 -0.063287 -2.116436 0.543339 0.516855 -0.719947 -0.146713 0.265366 2.134563 -1.037159 1.234099 0.815219 -2.123327 -1.570925 1.024806 -0.050746 -0.162268 -1.070316 0.264362 0.027322 -0.533563 0.182703 2.019258 0.600675 0.120462 -1.274171 1.393765 
for -0.886051 1.643325 -0.242248 0.662473 -0.236917 -0.792588 0.773327 0.461173 -0.323198 0.771212 0.936414 -1.475761 -1.447367 -0.749187 -1.012764 -2.278270 -0.576472 0.569145 -1.148178 -1.190306 -1.645209 -0.316393 -0.214597 -0.547335 1.885652 1.785927 0.228486 1.695639 0.663590 -0.307789 0.459579 0.934461 0.623858 -1.470321 -1.442327 1.243617 -0.553701 0.775641 0.331047 -1.540815 -1.242426 1.085184 0.874370 -0.988541 -0.803519 -0.306573 0.563752 -1.631249 1.583261 -0.548750 1.317605 -2.040442 -0.327052 -0.217869 -0.746332 -0.865701 0.477980 -0.889481 -0.091761 1.758656 0.362150 1.333776 -1.037508 0.423242 1.020925 1.055694 1.525222 0.850205 -0.060616 1.261490 -0.685526 -1.775409 -1.312105 -0.356898 -0.305729 -0.312254 -1.865529 1.623789 -0.391793 -0.144586 -3.777256 1.449044 0.579281 -0.188920 0.151712 0.696030 -1.073550 1.165649 -1.573952 -1.013447 1.465693 -0.575034 -0.775814 -0.112573 -0.189880 -0.982060 0.535952 -0.883384 0.036957 -0.515915 
on -0.990208 2.371214 1.140396 1.699661 0.577353 0.199713 0.925412 1.119367 -0.260148 0.099493 2.933420 -0.499139 1.525239 0.783558 -0.681685 -0.652748 -0.722370 -1.409112 -1.910729 -2.594084 -1.260793 -1.054566 0.752410 1.238950 0.542945 -2.012719 0.467055 -2.875589 1.056792 0.479474 1.387693 0.275714 0.694015 -1.194240 -1.152217 2.293416 0.600616 1.471619 -0.890072 -1.574476 -0.445446 0.801264 -2.638517 1.382258 -1.008441 2.045445 0.222950 -1.061200 1.511671 -0.579517 -1.102168 1.133423 -0.339581 -0.515487 -0.669441 -0.903424 1.749217 1.546447 0.559443 1.059154 -2.009840 0.152225 -1.864183 -0.799372 0.075032 4.243501 -2.432020 -0.198944 1.948434 2.203707 -0.154712 -0.819012 1.177644 2.358779 -1.793821 1.252092 -0.602129 -2.408384 -0.824187 -1.341590 1.243036 -0.700862 0.217908 -0.536518 -0.052197 0.903038 2.572018 0.012871 -0.036022 0.313634 0.223482 0.073561 0.423700 -1.121819 -1.041161 0.174141 -2.967530 -0.651874 0.336990 -0.223060 
them -0.103293 -2.186088 -1.241262 -0.641777 1.461255 -1.055551 3.107636 0.836576 0.362858 0.537321 -1.460760 0.890830 0.046434 0.671316 1.295938 -1.278693 -1.268467 -1.102010 -1.548136 1.818094 -0.832285 -0.336686 1.482795 -0.548485 1.079808 -0.499591 -0.367282 -0.237888 0.463592 2.601401 1.938960 0.959164 0.399717 -0.515974 -0.731366 2.235174 -0.839105 0.409379 -1.091145 -0.721699 -0.131875 -0.291377 -1.695300 -1.792179 0.974237 -0.219525 0.138381 1.127028 -0.110340 1.312947 -0.684798 0.351758 0.420718 -2.065971 0.721986 1.170121 -0.322186 -0.168095 -0.928398 -0.711308 -0.851329 -0.684797 1.058701 2.737880 1.644675 0.088119 -1.992680 1.901287 -0.355605 0.723163 -0.377001 0.761763 -0.667296 -0.489842 0.222243 2.153298 0.638688 1.373338 0.696771 -0.408818 0.635706 1.879854 -0.033916 -0.962717 1.590860 -0.201072 -0.689421 -0.413254 0.465171 -0.540024 0.857022 -0.060541 -0.898814 0.707150 3.391506 -0.308864 1.274750 2.087834 0.784307 -0.359606 
When 0.220115 0.445577 -0.762790 -1.018070 0.113901 -2.505105 0.345923 1.539663 -1.931290 -3.574952 -1.305403 -0.836457 0.814064 1.104056 1.363252 -0.783015 -3.697699 0.903436 -2.165137 2.116628 3.984908 0.943461 -1.665407 0.807193 -2.299839 0.074785 0.131493 -0.035185 0.163948 1.493045 0.124605 -0.664294 0.847381 0.875986 -1.864311 -1.457710 -1.423912 0.589125 -2.276894 -3.005046 -1.738263 -1.147636 -0.543539 1.517368 -0.357814 1.274934 0.521354 -1.004727 1.901616 2.321464 -1.450374 -0.386751 -0.122544 0.057229 2.999401 0.772340 2.174668 -0.815201 1.123665 -0.470099 1.298602 -0.182407 -1.089719 0.446516 -1.170894 -0.730248 3.465126 1.555528 0.574775 -1.407938 -0.496050 -4.928798 -0.748223 2.066702 -1.938079 -1.574655 -2.883969 1.886970 0.315674 0.891981 -0.609327 -0.091300 0.953900 -0.544033 -0.426817 -2.683131 -0.967298 0.770523 -1.768032 -2.585578 0.773294 -0.883349 -1.025487 -0.130102 0.795187 0.964074 -1.138457 1.524636 -2.776320 -1.302216 
as 1.501012 0.291393 -0.682136 1.191410 1.680873 -0.602349 -1.243407 1.490834 1.870104 0.510088 -1.601233 0.044012 1.821706 0.733434 0.431391 0.799209 -0.336338 0.875351 0.098552 0.362105 -0.467951 0.590855 -1.162440 -0.679574 0.700628 -1.267767 -1.097231 -0.482567 2.188160 -1.026389 -1.210803 -1.362254 0.089407 -0.486164 -0.266709 1.684565 0.438800 -0.832838 -0.265026 -1.970646 0.942626 -1.328997 2.626848 0.826538 0.517236 -0.687324 2.962692 -0.265902 0.270668 1.497237 -0.836932 0.366149 1.341813 -0.326485 -0.302186 -0.620760 -0.850106 -2.668097 -1.620025 -0.378476 -1.266507 2.767571 -0.434933 -0.010649 -1.294852 0.643366 -0.522027 -0.544059 0.812604 -0.079184 -1.932320 -1.122935 1.756425 1.039244 -1.813693 1.065097 -0.721532 0.082181 -0.764418 0.834173 -2.076342 1.535485 -0.112802 -0.271732 -1.214041 2.053044 -0.345864 0.357249 -1.813553 0.737452 -0.050190 -1.502207 2.549164 -0.269039 -0.356379 -1.733609 -1.009653 0.982424 -1.012551 -1.119694 
when 1.857077 -0.681425 1.316526 0.019402 0.188428 0.548985 3.290422 -0.071514 1.101823 -4.073228 0.104867 1.060937 1.103238 1.044701 1.782237 0.341454 -1.602490 0.427814 0.606324 1.455624 1.354947 -0.489164 -2.716321 -0.667757 0.286846 -1.394758 -1.082809 0.254599 0.604066 1.693183 0.682350 0.582718 1.768240 1.754005 -0.880302 -0.910843 -2.443592 0.550045 1.846128 -2.754988 -1.400366 -0.554805 -0.440586 0.442157 -0.379590 0.063336 1.800231 -0.151565 1.204496 3.719929 -1.051356 1.483063 1.241604 0.745108 0.980337 -0.088975 2.618213 1.604252 -0.123533 -0.890547 0.779508 1.027079 -0.056791 0.723533 -1.244805 -2.295383 1.027665 -0.646919 -0.440178 0.698956 2.087119 -3.679636 -0.557524 -2.143342 -1.307498 -1.438290 -0.395420 -0.744799 -0.382057 1.994462 0.937751 -0.583087 1.300749 -0.068069 -0.310214 -1.751396 -0.480886 0.746792 -2.199166 -0.102217 1.931971 1.071072 1.425507 -2.217065 2.536041 -0.345694 -0.246965 -1.088600 -2.521610 0.477899 
killed 0.523955 0.153632 -0.022930 -1.767679 3.974438 0.747788 -0.621427 -0.756257 -1.269972 -0.498321 1.419682 -0.459994 -0.477490 0.257821 -0.375451 -1.059095 0.995586 -1.697160 2.053900 -1.906721 0.195469 1.983013 -1.331826 1.435773 -0.246600 1.085276 -0.468709 -0.721415 -0.605571 -1.120327 0.538084 0.680343 -2.094045 0.052470 -0.831051 2.145772 0.284314 1.880404 0.315489 -1.580740 1.040997 -0.922430 -0.381081 0.790702 1.695749 -0.594092 -0.357453 -0.262294 0.501193 -1.691428 1.971571 1.312514 -0.204104 0.974084 -0.614923 0.029556 1.558190 -0.804294 -1.341765 -0.479021 2.607197 -0.060669 -0.008089 1.353752 -1.208694 -1.200480 1.418787 1.163934 -0.630645 1.700024 0.633076 -0.482316 -1.862755 0.302023 0.798102 -0.450058 1.991717 -2.863405 -1.979307 1.905540 0.141651 -1.650724 0.081645 -2.435343 -1.284495 1.793616 1.102092 0.761559 0.136835 2.163111 -1.561604 -0.069393 -1.356189 1.192534 -0.031058 -0.916632 1.536165 -1.374564 0.104271 -1.691221 
But -0.413972 -0.578194 1.318418 -1.251701 0.253595 -1.185890 2.150753 1.621384 -2.892851 0.198340 -2.616721 -1.046274 1.090155 2.812477 -0.958498 0.288516 -1.026212 0.893736 -0.499907 0.305950 1.203492 -0.516968 1.534768 0.608762 -1.467851 2.156430 1.613279 -1.063758 0.473008 1.294398 1.258222 -0.549911 0.601225 -0.925184 -0.595808 -0.924124 0.743388 -0.989019 -1.372903 0.223145 -1.277441 2.313213 2.124727 -0.080378 2.233718 -2.270581 -0.284392 -0.597373 2.814084 -1.333836 -1.776685 -1.870307 -0.033865 -1.522122 1.782252 -0.531152 -0.412666 -0.717430 0.172618 1.073500 -0.158405 0.451052 -0.842894 -1.467617 -0.683480 -0.241807 2.164032 -0.445311 -0.782811 -3.499104 -1.556911 -1.247960 0.564542 1.589252 -1.474682 -1.515908 1.054425 1.882050 0.036642 0.507872 -1.832569 -3.397863 0.511438 -2.603098 0.798153 1.151074 -0.079236 0.931604 0.358732 -3.042588 -1.349204 0.418869 -0.083711 1.713439 -1.744222 1.074323 0.119117 2.592237 0.217952 -0.744730 
at 0.339809 -0.691850 0.435934 -0.801248 -0.682974 -0.612028 1.953273 -0.410891 1.366229 -0.402457 1.807103 -1.273136 -0.758551 0.867820 -2.341160 0.655610 -1.352946 -0.641254 1.099712 -0.066009 -0.932058 -0.659710 -0.604196 -0.671448 0.720440 2.138116 0.231321 -2.235715 0.923370 -1.520578 0.671227 0.824448 0.334241 2.310817 -1.603873 -0.537005 0.377960 0.033285 -1.302327 0.963930 -0.191280 1.018494 -0.771039 1.930455 2.092584 0.888595 -0.234660 0.566271 1.053101 -0.078846 -0.179514 1.084653 0.835657 1.244027 -2.037297 1.113751 1.114231 0.156151 -0.823015 1.470522 -0.980782 1.037799 1.471697 -1.463411 -0.448597 0.564939 1.206164 -2.529081 0.690696 2.819120 -0.088988 0.464961 -1.159534 2.684509 0.552590 -1.410816 0.586203 1.388262 -0.702738 0.050371 -1.849204 -0.069750 -1.066579 -0.007031 -0.292200 0.516302 -1.562356 0.626323 -1.324602 0.414494 2.324489 0.495278 0.970170 -1.640558 1.475541 -0.980370 -0.621998 -1.541148 3.057391 0.609607 
were 0.976038 0.425710 -1.248523 1.262041 0.692499 -1.142177 -3.379595 -2.533222 0.884079 0.427638 -1.072961 -1.376603 0.168679 -1.074397 -0.819679 -2.459579 0.353005 -2.870020 -2.775579 -1.504289 -0.403963 -2.089813 -2.108436 -1.239267 1.340750 2.283365 0.328209 -3.204301 -2.469119 0.667453 -0.464736 -0.208812 0.700257 -3.000810 -0.251531 -1.441239 -1.136338 -0.262181 -0.074123 -0.531125 -1.761394 0.523157 -0.691084 -2.076928 -1.146773 -1.265329 0.260715 0.838888 -1.704954 0.353598 -1.960513 0.937554 0.757584 -2.468846 0.885061 0.700702 -0.952321 0.597840 -1.348026 -1.179200 2.222763 1.433678 2.057608 0.162780 -0.694666 1.049092 -1.269131 -3.155779 2.019349 1.684425 0.101015 3.813738 -0.917888 0.392733 1.797617 -1.041507 -0.498107 -0.459965 -0.799329 -1.882388 -0.033789 0.679088 0.352428 0.729180 0.176158 0.817061 1.683543 0.252078 2.694677 -1.863878 1.792531 -0.640160 1.159835 0.212661 -0.179886 -0.686167 -1.698757 0.781639 1.541074 0.518718 
but 0.909246 0.537133 0.060269 -1.683144 -0.566180 0.060616 0.955818 -0.235665 -1.263397 -0.010566 -0.399507 -0.095227 -1.438855 0.160820 0.498559 0.312087 -1.194159 2.482985 -2.343191 -0.371618 2.153272 -0.750573 3.091079 2.063918 -1.442878 0.211272 -0.749081 -1.199908 -2.026189 -0.808221 1.141460 -0.474049 1.263949 1.608544 -2.117751 -2.658950 -0.482128 0.105785 -0.636803 -0.209082 -2.069030 1.641408 2.846220 -1.807035 0.535982 -1.548870 2.517996 -1.948095 -0.359136 0.627951 1.597826 0.092716 0.189239 -1.565681 2.104795 4.016596 -1.530797 -2.209547 0.471457 0.838178 -0.306902 -1.547726 1.141785 -2.526078 -0.238468 1.066052 2.305469 1.940316 -1.300315 -4.525481 0.790897 -0.983098 1.734626 1.830413 -0.103552 -1.862737 -0.351256 0.180800 -1.606538 -1.945756 -1.400391 1.687011 1.778631 -1.136794 -1.274220 0.622727 1.257242 1.349607 -1.207505 0.397436 0.454670 -1.427911 0.171272 3.167179 -1.731152 0.686368 -1.527148 -1.241669 0.679448 -0.513426 
who 0.351229 0.364856 0.878578 -0.633050 -0.098010 -2.280071 -0.457449 0.800637 0.234529 0.811907 -1.035779 -0.616798 1.396685 -0.063906 2.575130 -1.847640 -2.998822 -0.923638 -1.205444 0.730758 1.360190 0.855301 -1.220344 2.031353 -0.569008 -1.553519 -1.644054 1.490228 1.897089 1.244624 2.035494 -3.008909 -3.385540 -0.052229 0.806583 -1.453032 0.567614 -0.748626 -1.093679 -1.000614 0.616734 -1.940920 2.843529 0.741290 -0.054404 -0.819326 -0.856538 -0.927845 3.552883 1.693738 0.389933 0.255135 -0.001093 -0.909874 -1.106850 0.357648 2.225374 1.913195 1.462869 4.474384 1.002571 0.134367 -0.449959 -1.152443 -1.067749 -0.291254 1.180413 3.673022 -2.575689 0.279421 0.490293 -1.308333 1.417791 0.863615 -0.488849 -1.375456 -1.770647 -0.022806 -2.004952 -1.736626 2.815908 2.118628 -2.640534 1.361758 -1.471893 -0.479076 0.579134 1.217411 2.023874 -0.306742 2.100434 -1.694095 0.238205 -1.171838 -0.628551 -0.605813 0.549033 0.721352 -4.426171 -0.793550 
sons 0.578227 0.181843 0.428764 -0.684380 -0.412703 0.803416 -0.795419 2.583576 -1.634940 -0.620821 1.409616 0.447197 0.988454 1.173967 1.491868 -0.609886 -0.307556 0.371020 -2.260007 3.002513 -1.744319 2.964195 -1.064843 -0.119380 2.583587 -0.604040 -2.098638 -1.094519 -0.234708 -0.124315 -0.120292 1.325940 -0.566322 0.474580 -0.527400 0.268168 -2.947082 1.144204 -0.064556 0.248183 4.036625 1.945555 1.800654 1.116607 1.142626 0.600678 0.707060 0.191099 -1.657224 0.250402 0.989589 0.186148 1.818669 1.919420 -0.828038 -1.210994 1.735024 0.949266 -1.341925 2.808221 -0.900880 -1.295145 -1.037571 -2.220867 2.936477 1.936897 1.088325 -0.847738 0.062404 -1.082413 0.842871 1.886020 -1.837415 -3.458977 1.253337 2.893841 -0.135640 -0.436180 0.024631 -2.056688 -2.131275 -0.282850 -0.676674 -1.229381 1.662388 1.054663 1.030923 -2.404242 1.160733 -0.472517 -1.347155 -3.661774 0.630985 2.045609 -1.620161 -2.204562 1.478792 2.386779 1.112248 0.799476 
And -0.281883 -2.573855 -0.622891 0.898666 1.675193 -1.904865 1.759640 -0.224385 0.699270 -1.408832 -3.125376 -0.683249 1.553589 1.417351 -1.524571 -0.233071 -0.758844 -0.816605 -2.382081 0.305253 1.294844 0.167635 0.295199 3.007826 -0.324689 1.207945 2.351980 -1.436081 0.947684 -1.616736 2.902733 -1.857569 1.246041 -2.509150 2.626011 -1.132893 -0.372207 -0.215030 -0.429877 -2.075628 0.781803 2.040125 0.352595 1.908290 1.438104 -0.589211 0.334091 -1.024688 1.932160 -2.581941 -2.204934 -0.083305 -0.025932 -2.177694 1.297137 0.389306 1.037671 -3.808038 0.043601 1.164121 -1.590758 2.425886 -3.525810 0.300295 0.208399 0.180677 1.982889 2.490052 -0.127265 -4.925803 -2.894490 -0.681282 -0.664545 2.376795 -1.357859 -1.034668 0.311269 2.103176 -1.125191 -1.585443 -0.820107 -1.187370 -2.304361 0.309464 0.369216 1.631050 1.309235 -1.766222 0.657977 -3.582368 -2.119609 2.079298 -0.069776 -0.347881 -3.335015 2.888213 2.650423 1.169522 1.139829 0.517646 
which 0.281783 1.877584 0.489827 1.122974 0.666761 -2.805341 -3.502585 -1.095430 -0.234770 -2.230254 -1.910417 -0.808242 -0.079934 1.941148 3.306206 0.235723 -0.959222 0.567151 1.611667 1.130975 0.054283 3.886655 0.623813 2.985075 -1.266256 0.633297 -2.750105 0.615664 -0.039681 -0.189731 -0.799882 0.017736 -2.648513 -0.225627 -1.435686 1.532888 -0.599298 0.720170 -2.450715 -0.135963 -2.270150 1.665909 -1.170567 -3.284970 -2.270575 0.755548 -0.374149 -3.179130 2.833516 -0.647164 -0.236930 1.995658 0.206602 -0.396329 0.101394 3.772716 0.172671 -1.262141 3.571852 1.594980 -2.448204 1.168493 -1.752804 -0.888431 0.973727 1.321077 -0.979430 2.258032 -0.507672 1.961328 -1.385977 -0.208416 0.421898 -1.307605 0.015431 -1.492939 0.079681 0.404623 -2.826915 -0.758328 -0.235408 0.997135 -1.591944 0.257342 0.418551 2.274279 -1.242264 -1.769707 -0.039986 -0.966447 1.459235 -0.705501 -1.138243 -2.306528 -4.358337 2.356403 -1.742747 -0.047687 -1.435461 -0.158740 
came 0.706825 0.422362 3.705703 0.870039 -0.088070 0.304810 0.100148 -0.781243 -1.220852 0.300866 1.007835 0.343611 0.487650 1.966678 -1.194709 -1.857100 -1.029609 -2.108561 0.857239 1.964903 -0.832490 0.742280 -0.908450 1.477836 -1.484904 -1.402311 1.909752 -0.564796 -1.929294 -0.631986 -0.365070 -0.366124 -0.893866 -2.072780 -1.477590 -0.986837 1.439861 -0.158572 -2.582239 0.085722 -0.573984 1.135564 -2.339764 -0.158564 -0.348761 -0.326949 -2.974579 1.073026 -4.329616 -1.581857 0.429694 -2.204855 -1.325463 0.066400 -0.821632 1.459421 0.146882 0.240083 -0.643328 0.361002 -0.392894 0.127561 0.524989 -2.118936 -2.038075 3.642433 -0.316792 1.594509 0.726912 1.278244 2.365468 1.755761 -3.897769 0.696926 1.834872 -1.647258 1.531814 1.393591 2.126705 -2.167875 1.592767 1.246939 1.740635 -0.342542 0.893990 3.052904 -0.079610 0.678084 2.685868 -1.338925 1.330172 2.316501 1.495970 -3.523793 1.753042 -2.914278 -1.896587 1.344423 0.010912 -1.347926 
not 0.557796 2.042558 0.807896 -2.900676 1.657988 -0.550696 -0.692371 -2.271338 3.177038 -0.020018 -0.699797 0.181904 0.602806 0.432914 -1.794454 2.186810 -1.439418 -2.698049 0.354981 -1.335576 0.192777 -0.340182 1.527678 0.995884 1.983105 -3.495914 1.696618 -2.836031 0.050462 1.317281 -0.527475 0.111223 -1.262259 2.685134 -1.864911 1.277136 0.857843 -1.200144 -2.462801 -1.075842 -0.378241 -0.437295 -1.180189 1.400570 -1.496186 4.007346 0.084644 -1.319240 3.236342 0.168334 1.104980 -1.671919 2.333765 0.567734 -2.572407 -1.835055 -3.190581 0.755559 -2.198859 -0.825636 0.216557 2.511228 -1.265710 0.315707 1.190377 -5.280007 3.448239 0.611599 -1.848587 0.132654 1.988574 -1.069257 -1.803313 -2.466583 1.094555 -3.740521 1.227194 -0.172738 -2.018042 3.304982 0.199815 1.451356 -0.127639 -0.835202 -3.787461 1.574712 -3.938108 0.286370 0.425761 -4.670795 0.876362 -2.268456 1.852166 1.114998 -2.283379 -3.217542 1.182818 -1.798143 -2.804806 0.072436 
Hercules -1.467867 0.177939 -0.523590 0.172967 -1.686982 2.690826 2.125313 3.085643 0.993713 2.099735 0.585086 0.849597 0.130135 2.372356 0.801680 3.133572 0.086837 -0.585136 1.389410 1.563507 0.515907 -2.758650 0.454125 -1.267454 -0.073067 1.631186 0.320035 -0.179696 -1.340186 -0.154955 0.251234 -1.626509 1.020675 1.472468 -0.504507 1.988111 -0.365748 0.677944 1.370430 0.181831 -2.065849 -0.025849 3.345696 1.427536 -0.001028 -2.528270 -0.420993 -0.437672 1.422282 0.256693 -0.086728 -0.514062 -1.138136 1.166497 -1.289539 -0.213630 -1.003479 0.537903 2.382688 1.357947 0.851765 -1.761035 -2.038445 2.682003 2.663438 -1.637107 -0.990945 -2.724833 0.334486 -0.824599 -0.868192 -1.152448 0.328867 0.184437 2.149537 -3.060156 -0.218509 0.736323 -0.397043 -1.351008 2.024005 0.943002 1.402586 1.379935 1.996710 2.450950 2.942463 1.185954 2.690759 1.692443 -2.723781 -0.549913 -0.706394 0.511077 -0.614529 0.819656 0.769716 -0.502157 0.293730 -2.265850 
be -0.312280 3.894161 -1.122142 0.552854 1.011277 -1.832752 -1.011962 -2.814259 -2.720350 -0.349969 2.983192 -2.241836 1.941774 0.922849 -0.395261 -0.132765 0.631262 1.122567 -0.150442 4.203682 -1.062416 -2.477675 -1.755844 -3.450063 4.464002 -0.814158 0.385099 0.943108 0.821259 1.088090 2.180477 4.338914 0.702562 1.958316 2.991230 -0.257307 -0.718032 -0.542185 0.101440 -1.358680 -0.483013 -0.615945 -1.849523 -1.779114 2.959293 1.540596 0.392480 0.701410 -1.928900 1.517738 -3.123860 1.558050 -0.212551 -3.065931 2.443173 -0.339977 1.362791 0.058560 -0.367087 2.082992 -2.282846 1.837758 -1.705087 0.722587 1.982703 -1.579334 -1.487576 -1.761625 -1.286996 0.066298 -2.393992 2.363262 1.620826 -0.663465 4.087734 0.877393 0.128147 1.256637 0.210506 -1.210108 -1.428395 -0.156565 -0.903725 -0.391907 -0.037940 -0.148983 -2.396152 2.837096 0.064489 -3.211203 -1.448924 1.301183 3.630484 -0.862345 -0.946282 -0.094014 -0.281365 2.048275 -1.214411 2.750718 
their -3.150436 0.205973 -0.648480 -0.931133 -2.617295 -1.290879 0.262645 -0.011480 2.242214 -0.015139 -3.000816 0.250033 -0.008139 -0.690421 2.146479 0.339198 0.213780 0.832961 -1.998486 -1.597187 0.069284 0.273975 0.603802 1.302815 0.826328 -0.090727 1.448228 -1.944966 0.382187 2.902975 -0.207845 2.436983 0.320861 1.984566 1.264524 1.040227 -0.282327 -2.392157 -2.917356 -1.104079 -0.255768 -1.068533 1.053981 -1.584122 -0.427595 -1.137358 -0.761831 0.050039 0.950086 3.332240 0.433564 2.815807 -0.476816 -0.326417 0.778838 0.561024 -0.118218 2.000848 -1.893559 -3.404333 2.094519 1.728805 1.320062 2.115829 2.840641 -2.520983 -0.706389 2.181107 3.571060 2.666854 -0.036306 1.068683 0.167543 -0.807640 1.158663 -3.026868 -0.670454 3.156303 3.332837 -1.223135 -1.177449 -2.009377 -0.698633 2.196228 0.278823 -0.578979 0.096007 1.985086 0.560744 -2.025245 -1.243385 -1.207279 3.107426 -0.459822 3.058332 3.783255 -1.168068 -2.049684 1.688982 -0.026333 
called -1.339007 -0.868513 0.681333 -1.243908 0.921061 -0.185779 0.978051 -2.660814 0.216941 -1.022444 3.260920 1.405579 2.587310 0.486691 1.798447 0.742141 0.437477 2.115005 2.358177 -1.206318 2.067192 1.021087 0.971665 0.974360 1.342662 -1.064083 2.615294 -1.298919 3.124833 -0.382384 -1.940050 -0.331118 -1.705980 -2.065791 -3.945177 -3.219738 2.812715 3.892820 -1.488033 0.087626 -0.065219 0.298970 -2.565501 -0.105728 2.182671 -0.983378 1.087693 -0.065387 -0.343487 0.807296 -1.975704 2.017328 0.578840 1.136777 -1.669698 0.738374 -0.963009 -1.274020 -0.788046 -0.215211 -1.632439 -1.166467 2.061479 -1.777122 -2.074031 -2.543541 -2.713398 4.419597 1.762722 1.211623 1.977877 0.600119 0.569996 0.142817 3.161891 0.480574 -2.940995 -4.200332 0.576914 3.085915 -2.303466 -0.952527 1.064833 -0.902845 0.469721 1.054166 -0.639387 2.949923 -2.167675 2.274942 2.697753 1.065647 -0.165454 0.086126 -0.447060 -2.268534 -0.312776 -1.746370 3.098720 -3.502873 
this 3.503139 -1.625772 3.160966 1.063547 2.527614 2.317743 0.541445 2.063138 -0.836137 4.699124 -3.664024 -0.965924 1.252991 -0.718237 1.531435 -1.183956 -0.498985 0.017906 -0.297217 0.718167 1.287162 -0.350603 1.621408 -0.564027 1.903254 -0.189351 2.395356 -1.873784 1.202481 1.106139 0.918394 -1.345227 -2.107892 -0.579615 0.548699 -0.359112 1.160468 2.023355 -0.920514 -0.687769 -1.778436 1.208170 -2.762690 -1.618442 0.233965 -0.749354 -0.019025 -0.167514 0.721368 -0.609299 1.281053 -2.603070 -1.251907 -1.342140 -0.214541 -0.473559 -1.153571 4.244925 3.036864 -0.118272 -0.345908 0.200541 0.817791 -3.873353 -0.799739 -2.429860 -2.769490 0.001259 0.477855 -0.804949 1.318527 -0.818713 1.453301 -4.573629 -2.241258 -5.671741 1.727323 2.558070 0.006880 -3.126905 -1.886012 -1.618720 -1.737109 3.981680 -3.355591 -0.091939 2.212281 0.658964 -0.594117 -0.562401 4.098432 1.769247 2.471916 -2.740656 -0.451166 1.100845 0.106214 -3.263396 -3.752565 1.720392 
into 2.651284 4.876906 -0.592507 1.671263 4.256044 1.618787 0.552340 -2.416872 -0.216399 -1.422329 0.010174 1.389071 1.889405 0.555017 0.253431 -0.485989 0.932632 -3.240414 -0.798488 -3.556760 -3.795594 1.220480 2.675568 1.163490 0.222247 2.940321 -1.348977 -0.878404 1.604841 -1.753224 1.733351 4.063633 -0.355228 0.290183 3.680165 -1.073138 -0.966353 2.903013 -1.803775 -0.194327 0.028478 -0.404070 -0.179681 1.021188 -0.216020 -1.256912 4.148006 -5.192914 5.394950 0.886272 -2.027800 -1.123932 3.137020 0.445615 -1.053854 0.928337 0.529798 0.359117 0.055149 2.521023 -0.679542 -2.462776 0.521311 -0.282351 -4.090986 1.399791 -0.214825 -0.028967 0.759777 -1.536578 -1.238966 -0.814538 -3.646849 0.532859 -3.857762 1.264439 -0.326434 -1.551963 -2.010193 1.724483 -0.086397 -1.532338 0.015193 0.001400 2.179808 4.600648 0.345894 -0.805772 3.018017 1.765112 3.037842 -0.823574 0.407970 0.393165 0.803636 -2.375785 1.518055 0.418184 -1.613860 0.771467 
would -1.344537 -0.873151 0.616575 -0.898080 -1.418211 -2.928031 -0.285808 4.064381 1.951929 1.051589 0.346819 -0.013000 0.749293 -0.059638 0.992641 -0.433844 1.906394 -3.421191 -1.182621 -1.901410 -0.293717 2.577898 -0.106700 -0.407616 -0.182144 -2.599870 -0.436893 -1.112895 0.704128 -1.217896 -3.454060 0.153865 2.736715 -3.105223 0.240974 -2.097290 1.815732 -0.760016 0.866355 1.318070 -3.057700 2.144617 3.934199 -0.650842 0.507290 -3.644074 -0.008219 3.099665 -0.126041 -1.935660 -2.539013 -3.768965 -1.980620 2.254401 -0.229141 0.284829 0.838473 1.665754 -0.986933 -1.041758 2.202753 0.974524 2.308936 -0.085458 -0.609913 -1.047991 3.495533 -0.472290 -0.680800 1.645051 -2.427045 0.252317 0.600558 0.073049 -1.758784 2.381870 2.337155 2.407234 0.256437 1.063373 -3.926412 -0.408936 6.890240 -0.513291 -1.477338 -0.731869 3.785012 -0.568738 -3.501603 0.848728 1.325590 0.413188 -0.017246 -0.830800 -1.142567 1.190990 -1.207172 0.365676 -0.566925 -0.125082 
gave 0.506523 0.767666 -0.480985 3.959531 0.083201 3.375556 -3.062959 -3.804175 -1.716289 0.570700 0.725696 0.849862 2.388965 0.503711 -1.472824 -0.279515 -0.554739 0.400013 -1.650455 -2.219887 2.031695 1.095596 -1.973132 -3.032373 -2.021932 -0.085714 1.353188 -2.249122 -1.328295 2.582850 -0.619021 -0.502542 0.899692 -1.906017 1.721433 -2.086096 -2.191132 -0.068751 2.179698 1.861963 2.422727 1.416995 -1.835963 2.792570 -3.857960 0.291454 -0.271606 1.438214 -0.966130 0.968642 1.738088 -2.405239 -1.962451 0.789186 -3.044368 -3.068126 2.562439 0.134581 -0.173264 0.906111 2.485303 2.244515 1.491768 -0.139115 -1.919797 2.737394 1.025395 -2.377193 -1.275900 -2.148917 2.659633 -1.356912 -2.227231 0.404987 -2.045624 -1.333760 -2.330629 -1.419875 3.525966 1.137999 -4.030831 2.308291 2.396827 -1.326859 -1.347367 4.269443 3.705679 2.779521 1.926582 1.334096 0.407186 4.269948 1.417452 2.170149 -0.329309 1.976770 -0.650536 4.268099 0.534899 -4.379349 
an 4.717778 0.581380 -1.482357 -4.876947 0.632172 -0.537838 0.975999 1.784237 -0.406108 0.571084 -2.336554 -0.715325 -2.877434 1.631478 0.397069 2.571121 0.455803 -1.825070 1.256573 1.725259 -1.352397 0.658676 -4.530702 0.473313 -0.380389 0.590227 1.746486 1.271569 3.579239 2.799447 2.392478 -0.147820 -2.234026 -4.960022 -3.112067 1.634015 -0.837840 -0.373371 -2.338928 -2.561492 -1.263849 -1.916293 -1.117597 1.178534 -2.519067 -0.066614 1.791047 2.337078 -0.507256 2.808064 -0.338856 0.804496 1.025110 -0.673787 1.695266 1.987592 -1.121173 -0.961810 -3.677299 3.756259 1.740542 -0.883038 6.283925 0.179008 0.170744 -3.570286 3.171969 2.062067 1.655765 4.767152 0.587196 0.538751 0.739439 -4.241003 0.915064 -0.555927 0.525583 0.988805 3.538021 1.164489 0.957625 1.209114 0.063171 -0.592301 0.803284 -0.999567 2.089740 -1.712147 1.656191 0.751387 1.423809 2.184455 -3.560284 -0.610345 0.636142 -0.085377 -2.292547 -0.664839 1.043560 -0.976284 
is 2.908286 -1.059905 -2.290720 4.053907 -1.381559 -2.264331 -2.828964 1.070220 -2.350059 -0.161298 1.477209 -6.216368 -1.704263 0.298497 1.530548 -4.633767 -1.279779 -4.103362 -1.636962 0.137706 -1.599511 -0.718114 1.690339 -3.214130 1.208160 -1.871746 1.993719 -0.573051 -2.761622 -1.281448 -3.900605 2.634744 -0.829697 -0.184394 -0.856961 -2.234425 0.928684 0.802996 -0.294708 2.330649 -0.073162 -0.040038 4.116008 -1.507510 1.288628 -1.997108 -3.052315 0.187214 -0.832039 1.118507 1.349468 -2.785178 -2.765375 -1.300469 1.989264 -1.234394 2.865657 2.008625 1.273170 -1.742078 0.869821 0.686708 1.095424 1.331391 -1.923855 1.612790 -2.003146 -3.069413 -1.868193 2.895468 -5.617328 0.254329 -0.134347 -1.596511 0.513876 -0.659845 3.108565 4.115206 -0.939363 4.388024 1.502599 1.312764 1.768268 -1.512133 2.131456 2.604163 2.908220 -0.192461 1.931192 0.845187 0.657517 1.682642 -4.851002 2.283871 1.996720 -1.517892 1.430745 -0.648723 1.794294 -0.805452 
said 0.144137 2.369827 -0.015944 2.440831 -0.556668 0.283659 -1.299893 -0.244069 0.265163 -2.307720 0.483500 2.462165 -0.904040 1.713131 2.715804 -0.519004 3.215395 2.035857 1.205065 -1.585635 1.223883 -1.766863 -1.122071 3.856423 0.040533 -2.255479 1.670574 -1.266328 1.024710 -5.611332 -4.075587 -0.225946 1.538777 -0.908126 -1.828906 1.649847 1.640603 0.226540 -0.034504 -0.675037 0.928303 -0.575081 -1.038173 1.422810 -0.172222 2.182844 2.976965 2.985268 2.995008 -4.287030 -0.990649 -1.725093 -0.535306 1.399484 1.192657 -0.985512 -0.803884 -4.816099 -0.535592 3.839793 -0.136803 -1.026899 1.593053 -2.218215 -0.806003 -1.247868 3.167121 1.183450 -1.932981 -0.865593 4.010699 1.517740 1.566846 -2.457575 -1.566417 -0.187957 1.138927 3.794592 1.908344 0.864022 -1.005672 4.197260 -2.902635 0.896236 0.305436 1.675169 -1.892303 0.398699 -4.098288 1.314599 2.849844 1.637375 4.594825 0.416645 1.652563 -1.163074 0.724507 0.176811 -4.313593 -3.284361 
because -0.902918 2.004344 -1.396549 -1.207094 -1.351712 -5.478151 -1.417538 2.885362 2.685681 -1.120899 -0.859616 -1.236932 0.421782 4.291515 0.287928 -2.324124 -0.173992 -0.023496 -2.812785 3.323594 3.184545 3.074978 -0.770952 1.872584 -4.047378 2.821487 -0.086455 0.425817 0.205992 -0.932920 1.235551 0.914770 4.619193 2.744701 1.251899 2.155394 0.671260 2.623235 1.790854 -0.252940 -1.525038 -2.253354 -2.733871 1.434297 1.893355 3.797940 -2.312407 -0.621317 0.123971 2.956164 1.895736 -0.093685 -0.044419 1.000151 -2.188016 1.251181 1.153367 -4.081632 3.848002 1.855676 2.103966 -0.057961 -2.026940 -0.869268 2.766340 0.062191 2.034997 -0.337935 1.507024 0.697030 2.143068 -2.903234 -1.487427 -1.407970 -1.516927 1.368331 -2.692004 1.837432 2.290980 -0.597007 1.074098 -0.934474 -0.907520 0.364667 0.319466 -0.725044 1.595376 1.103248 -0.858546 0.349149 0.340141 -1.132888 -1.482740 -0.511494 -1.228832 -0.832387 0.974172 -1.434261 1.816678 -0.773220 
Zeus 0.529065 -1.205593 -3.485817 -0.019238 1.280699 2.672107 -1.659090 -1.849099 -0.641016 -0.089937 2.784611 -2.160642 -0.806828 -0.292130 -2.094361 -0.810048 0.566907 1.001485 2.249311 -0.323096 0.966947 -0.302073 0.604280 1.187620 -0.658334 -0.135360 -2.545897 0.365391 -0.022578 1.205314 2.144971 1.353816 0.300003 3.128404 2.405436 0.166423 0.826436 1.053491 -1.190899 -1.036750 -2.002281 -0.434104 1.688599 1.201998 3.800121 -0.062039 -1.491283 1.892056 -1.605451 0.033636 -0.075086 -1.026241 -0.200873 -0.595414 -2.312930 2.462355 -1.347013 -0.591103 -0.933701 0.346646 -1.218171 -3.611171 -0.676689 -1.871229 1.709714 -0.527194 -4.189868 -1.426125 -0.626153 1.834173 -0.407684 0.249313 -0.631696 2.025363 -1.578568 0.906495 -2.343939 0.733951 -0.351091 0.303486 -0.663942 2.291864 0.686808 0.447903 -3.038353 0.809205 -1.132594 -1.779233 -0.355883 2.448709 0.549826 1.483928 -0.419203 0.371117 -0.752871 -0.383362 0.732622 4.204722 0.743973 3.202369 
up -0.034863 0.797489 -2.165631 1.716395 0.724092 0.649278 0.664422 -2.489674 -0.294468 0.057937 0.034146 -3.796589 3.060311 0.277701 -0.704794 0.424287 -1.362538 -0.773638 -2.113799 -2.579850 -1.781268 0.772690 0.363008 -2.087590 6.361274 3.283885 -2.858181 0.428518 2.361854 -1.506517 2.285404 1.019818 0.123639 1.708193 1.644607 0.482030 1.858214 -1.419596 -2.467174 -2.952496 1.673379 1.044920 1.117972 0.297275 -2.388624 -0.168425 -0.046864 -2.582358 1.316598 -0.649453 1.060821 2.515441 -2.767680 1.658703 0.811786 -2.130162 -0.701003 4.620624 -1.518735 0.510113 0.220223 -1.518644 -4.085129 -0.554173 -1.869936 1.590723 -0.757768 3.694831 2.579148 -2.111205 -0.643964 -2.120752 -1.890434 -2.671346 -1.172368 0.874222 1.265709 0.840139 -1.039104 -0.121051 -1.251281 1.394050 1.094464 -1.196748 2.347081 -3.883137 1.316024 -2.066001 -2.075703 -1.978090 -1.614090 -1.938301 3.445331 1.977452 0.818978 -3.535142 -1.680742 1.424917 -1.375767 1.831713 
so -0.020931 2.762979 2.049622 -2.992038 -2.045498 2.196304 0.791591 -1.134260 -1.338621 3.318212 -1.728176 -3.134349 -1.290017 -0.202860 0.337768 -0.963138 -0.541728 -0.671470 -2.204131 -1.262525 1.943309 0.066558 2.300799 -0.419657 -0.959380 -1.376017 -1.202020 -2.277742 -0.311568 2.514343 0.496065 -0.860043 -0.329242 3.556530 1.095570 1.895982 2.409705 -2.771122 1.145569 1.397718 -5.214010 0.523114 0.734496 -0.906436 -1.245781 1.539130 -0.074774 3.213079 1.581633 0.282124 -0.917084 -2.992858 2.138123 -1.485518 0.576585 -0.552395 -1.230319 2.780845 -0.458777 2.897087 -3.405614 3.197946 0.793706 -1.836844 -0.616000 -0.322280 -1.216084 3.640268 0.164561 1.787067 1.063656 1.628023 0.848676 -2.416766 0.284577 2.038560 -0.997772 2.413779 1.703888 1.509752 0.277253 1.243400 2.762963 -3.330472 0.056949 -2.782069 0.202519 1.354699 -2.698181 0.307009 3.202468 -3.234905 -0.956603 -2.759766 2.023933 -0.150812 0.092211 -1.855159 -2.600252 -1.261058 
out 2.336703 -2.563267 -3.461022 -1.420638 0.000088 -0.043714 1.430934 3.274859 2.467578 2.723428 1.622760 -4.086457 1.125184 2.260006 1.700375 4.097175 2.855748 -0.348604 -2.622586 0.621223 1.686856 -1.305582 0.942683 -0.231417 2.767272 1.379293 0.717775 -1.784847 1.597113 0.571536 3.082049 -1.188556 3.646657 1.974836 3.190459 -0.890237 0.711043 3.146846 1.083971 -0.105600 3.129673 3.280340 -1.187034 -0.981088 -2.301421 0.849512 0.357577 -2.036667 1.993504 -1.153317 1.126955 -0.868161 -0.603252 0.367540 3.004775 1.494961 -1.815393 1.171570 -4.919726 -1.441785 -0.379452 -0.201348 -2.376088 -0.088186 -1.944434 0.893743 -1.005929 -0.247123 0.505797 -0.086557 0.002927 0.599158 1.502819 -0.985288 -1.122525 1.600026 1.957012 -0.276653 -0.253055 2.702975 -2.854132 1.425645 -0.061396 2.086731 -0.645307 2.236362 -2.630278 1.258149 0.879111 0.739865 0.417711 -0.061272 -1.082832 1.359959 -3.153152 -0.104165 -1.139130 3.105309 1.082531 1.996164 
The 0.814221 -0.583818 -3.883281 2.875631 -0.068104 -1.515231 -1.741510 1.520126 -2.180366 0.397747 -1.084247 1.740945 -1.681006 -1.705002 -1.937002 0.404637 -2.974795 -3.189535 -1.516942 1.792169 2.926835 -2.303735 -1.243945 -2.215520 -4.734659 0.957747 2.809748 -0.683202 4.172087 -2.450107 0.568375 -1.152460 -0.307996 -1.569525 -3.283365 0.652795 -3.501500 0.558630 -0.105302 -1.076894 1.802227 0.454197 0.424316 1.258340 -2.124573 -2.335163 -0.735455 2.685374 1.278730 2.163706 -1.657558 -1.949791 1.071935 4.325212 0.923695 5.160038 -2.156707 -0.667266 0.827224 -1.214019 1.992575 -1.887636 -1.520469 -1.964388 -0.518990 -0.855746 1.229791 -1.263096 -0.762728 -2.443820 -0.051730 -0.062378 4.436962 2.278581 1.972706 -2.493073 -4.261858 1.395589 0.572676 -0.270023 0.828958 -2.176439 0.818818 -0.649749 1.154173 0.386649 -0.315843 -2.677388 -1.324366 -3.639897 1.235635 1.000039 0.404005 -1.477360 0.706865 0.391768 0.116840 4.061878 -4.672024 -1.755099 
there -2.886548 1.423806 -1.067328 0.951136 0.476122 0.389491 1.318129 1.320260 0.581313 -0.100851 -0.864586 -0.901806 -0.194027 -1.130678 -1.080143 0.503517 1.867450 1.801793 1.053278 2.156271 -1.401823 1.354127 3.013211 -3.235374 1.477609 -2.125099 -0.604633 -0.666371 -0.539179 1.269830 -0.913425 -0.575582 2.329736 -1.486939 0.934678 -3.614318 -2.293173 1.532324 0.208361 1.694098 -4.425427 -1.220488 -0.862162 -2.510510 -1.884065 -0.706323 2.967076 1.589066 2.399546 -0.951559 0.673148 1.787960 -1.752354 2.271573 -0.037785 -1.519515 -1.410524 1.688205 -4.466956 0.614165 0.925314 0.452670 -2.574613 -0.632391 0.333453 -0.497672 0.592671 3.812443 2.337994 0.896258 1.707518 0.555301 -1.589928 1.485047 -0.567821 -2.272027 0.957265 -3.468285 0.355599 0.483387 -1.159837 0.686326 -1.473992 -0.021537 3.701321 0.817874 0.581450 -0.931459 -0.542867 -1.087080 0.652191 -0.530853 0.616517 -2.470300 0.388776 1.258727 2.075849 0.732321 -0.248058 -0.591630 
He -2.087465 -0.095905 2.150653 3.351345 -0.347029 1.405401 2.982309 3.986613 -1.566887 0.008926 -2.239467 -0.975798 1.389007 -1.881656 -0.387933 0.379707 -3.102239 2.875031 0.243915 0.554585 1.986697 -0.018318 -0.055572 -1.946684 0.972686 -4.230947 -0.512086 0.399925 -0.160384 3.417405 -0.533485 -1.189970 -3.535054 0.455910 -1.589620 -0.812956 -1.263822 -2.334331 0.388647 1.810035 -0.721877 -2.809820 0.431231 4.069570 -0.717008 -1.236495 -1.518803 -0.310722 0.978410 2.280998 -1.878641 2.544616 1.578286 -2.391295 -0.004884 1.214756 0.826222 -0.880972 2.541628 1.544920 -1.628642 -0.293163 -6.462720 0.523941 -2.392717 0.650461 0.457494 0.160950 -0.573653 -0.921268 0.506710 -2.375517 4.063510 0.263147 1.106185 -1.798174 -1.155357 2.514322 2.160598 -1.935907 -3.743846 -0.182203 -0.960633 1.929573 1.530831 0.070585 -1.148552 -3.848028 2.779021 -4.053902 0.208092 -1.268350 -0.674238 -0.763417 -0.796293 -1.329791 0.974264 1.589052 1.454630 -1.548090 
Apollo 0.961803 1.929309 -2.931533 -1.250837 0.109156 1.346406 -0.184548 4.679907 -1.918955 0.499551 2.183928 -1.814423 1.546142 -0.335743 0.871386 0.356991 0.377401 0.045497 2.449999 1.200764 -3.766978 1.306890 -1.345531 -1.672859 2.509266 0.681643 -1.053687 -0.021381 1.751412 1.085510 -1.615317 1.382943 -1.087162 1.659645 -2.740628 -1.481897 2.401896 1.808238 2.012798 -1.391110 -0.624034 -0.955233 2.081122 2.529818 -0.215589 1.591485 2.534558 -0.762452 -1.218652 1.078332 0.888928 4.963731 -4.113282 -2.271479 2.736140 0.170495 0.315315 0.485047 0.836716 -1.875916 -0.000345 -0.799599 -3.220670 0.005843 -0.249434 -2.836783 -1.579600 -3.532788 -1.996001 0.956964 0.834188 3.175108 0.748377 1.686201 0.308416 -0.116884 -1.280523 2.087017 -0.600208 -1.578618 0.060594 -0.220336 0.776550 -0.203972 -0.172197 3.466028 -1.037867 -0.550286 0.850947 -0.977428 -0.844097 -2.808454 2.721156 -0.645836 -0.488200 2.614195 -0.142781 1.923761 1.692469 -1.007187 
father -2.114810 -2.022663 0.108620 -3.470103 -0.752197 2.587945 -1.993179 3.770536 2.329998 0.490509 -0.524403 0.015190 2.688271 1.237283 -1.710745 -0.871514 -1.077541 0.120844 -2.378531 -0.973977 0.327095 1.640224 2.311445 -0.809875 0.982303 -1.121123 0.162076 -1.099027 -0.167611 0.344795 -0.394008 0.453825 -0.383374 4.270317 -2.069533 0.602704 0.626259 2.520654 3.149411 -0.412529 3.278612 -2.461165 -1.416252 0.813507 -1.621751 -3.841783 -1.711609 -1.186651 -3.727835 -1.055881 -2.875691 -0.861011 -0.568358 -0.779487 -1.784707 2.038863 -0.445544 -2.231515 -0.059125 0.434046 -1.138690 -1.398771 0.509026 -2.273573 0.070856 -0.082956 -3.794988 -0.834473 -1.529582 -0.716426 -3.485345 2.368366 -0.614361 -3.340889 -0.994511 -0.695284 -2.066132 1.765915 -2.351677 2.076272 0.829071 -0.181851 -2.202588 -1.531342 0.335801 0.776847 0.265526 -5.610001 -1.638086 -1.414456 -2.207182 0.548689 -0.423545 0.719508 -2.129132 -2.199735 2.716929 -0.455576 -1.247041 0.410370 
Jove 0.585458 -1.897879 -1.472192 -2.426511 -0.362471 -2.567562 0.377254 5.017640 -2.865618 2.590528 0.553630 -1.162560 -0.558818 0.445261 -2.251848 1.007336 2.129875 1.475296 3.429620 0.431329 0.861891 -1.407833 0.449008 -0.318212 -1.436244 2.190714 -0.219792 0.240676 1.357682 -2.106017 0.016606 1.562569 1.893371 -3.172885 -0.537845 -3.642189 -2.461354 -0.774010 -0.101569 -2.476220 2.078584 -3.445986 -4.767267 -0.983232 -3.641411 4.594505 -0.497234 1.398914 -0.306387 0.082087 -2.865413 1.662439 0.409308 0.528969 1.485786 0.903883 -0.811906 1.202361 1.590221 2.581717 0.146432 -0.399831 -0.267677 0.114203 -0.627701 0.536623 0.901660 -1.893606 1.906183 2.514584 -1.679147 -0.387801 -0.112430 -0.380631 0.453943 -1.885927 0.086930 0.885084 1.563434 -2.459177 -1.025476 -1.621957 -0.114656 1.143268 -4.508956 -2.061874 -0.737431 -0.705075 -0.528837 4.042099 -1.147622 -2.699441 -1.995861 1.849227 -3.315428 1.312082 0.125624 -0.801989 -2.290753 -0.476098 
whom -1.354588 -1.055591 0.125674 -1.590737 -0.828054 -0.794753 -1.092191 -1.608811 -1.802067 -2.576933 -2.873930 2.846937 1.137972 1.024437 5.491618 -1.072174 -1.351965 1.732698 -1.892315 4.083914 1.036637 -0.116694 0.059844 3.329443 -1.400019 4.543709 -1.480612 0.991149 -2.427214 -3.953784 -2.530977 1.043012 -2.280584 -2.737524 0.600590 0.204493 2.198475 -4.454939 -1.161953 -1.694850 -0.431995 -0.173411 -1.860251 1.888493 1.133070 2.159659 -0.813724 0.111350 0.381783 0.562115 0.716451 -0.717977 1.022902 -1.639199 -1.932059 -1.926682 0.523458 1.528780 -0.743090 -0.893990 -2.232595 0.705575 -2.308190 1.084869 -1.089664 -1.972087 0.868572 3.064827 -0.543293 0.015582 -0.864039 -3.751401 0.691257 3.577827 -6.111266 3.334078 -1.026521 0.596348 0.602524 -6.172044 0.418052 -1.034222 -3.263465 1.162550 -0.950073 -1.473731 -0.575956 0.418396 -2.202631 -1.101507 -0.574944 -2.001186 1.700969 -0.580991 -0.544233 -1.670322 -1.509150 -0.895276 -1.261511 -1.039586 
been -1.421247 -1.167127 -5.218672 0.632326 1.487109 0.319371 0.651146 -0.947219 0.456689 -3.322342 0.598731 -0.412543 0.903484 2.556201 -0.287065 -2.295501 2.763287 -1.190937 -1.758341 -1.561294 1.368228 2.587855 0.418603 -0.382609 1.690451 -2.575667 -2.292609 -3.026269 1.904866 0.296936 0.494999 -0.633551 0.089051 -2.214032 0.127391 1.695997 -0.860024 -0.346391 -1.039634 -0.765768 -2.645504 0.092482 1.460574 0.694084 -0.878214 3.808053 1.961692 -1.510936 -3.604249 2.218212 -3.937014 0.714693 0.653367 -0.426282 0.111098 -1.532396 -0.298036 -0.400415 3.828500 -2.947449 -1.880451 -0.981580 1.851571 2.621241 0.951899 -4.275718 1.513337 5.077034 -3.419380 -0.095665 -0.496123 4.007812 2.303326 3.753476 -1.205365 2.210521 -1.387617 2.544236 0.014487 -6.253576 -2.009854 -2.331082 0.243258 0.167010 0.519630 -1.086025 -1.428360 -0.461795 -1.340957 0.905457 -1.140527 2.727295 0.744503 5.292453 1.019643 -1.374863 5.132430 -5.263855 4.632857 1.808149 
himself -1.100295 -5.778991 2.274794 -0.947330 -0.977856 2.435511 0.040342 -0.332678 1.618563 -0.829456 -0.108083 0.676503 -1.564445 0.782251 0.011956 -0.419620 -0.021953 -1.298939 -0.132396 3.410523 0.119322 -2.948505 2.672528 -2.342309 3.003866 2.308299 1.199311 -1.110488 4.819061 0.989960 -0.917385 3.493851 -0.026211 -2.683328 2.409086 3.511506 2.084767 -3.742421 2.470204 1.464347 -0.457482 -0.727374 -2.048927 -0.427834 -1.792379 -1.456540 2.943964 2.016212 -0.466770 -0.489897 0.643743 -0.219148 -2.058771 -4.254458 -3.548491 -1.102521 2.707319 1.590364 -0.483642 -1.303372 -0.160188 0.049148 -3.433319 -0.372838 -2.745708 -1.849460 -1.153319 -1.828632 0.629610 -0.250604 1.369964 -0.947912 -3.960266 2.758609 -0.921903 -1.551827 3.060159 2.907605 -0.923735 -2.400040 -0.613278 -0.505981 0.273450 -1.728827 0.420196 -2.414779 0.636443 0.864769 1.886950 -3.962341 0.369648 0.325250 -1.635101 3.402342 0.917358 1.213953 0.491099 -2.028913 1.118464 -2.104091 
made 1.481482 0.298086 -0.352007 -0.645605 1.708608 -0.649620 1.319620 -0.148812 0.986429 -3.183843 0.094826 -0.351760 2.179598 2.343169 -3.477913 -0.412657 -3.092117 -0.863434 4.207360 -4.168401 2.663342 0.311505 -0.081560 2.011436 -1.576736 -2.015619 2.006339 3.138283 -1.122803 -2.432963 -0.627115 0.109692 0.880973 3.284916 1.153773 1.870024 -1.239176 -2.350122 -0.810252 1.109857 3.068889 4.365825 -2.654210 -0.955435 0.982911 -3.574017 -3.328559 0.182742 -2.431054 1.096610 3.537242 1.623276 -0.194152 1.227470 3.001605 1.362228 -0.321801 1.273641 1.956140 -1.894622 2.747194 -0.426444 0.569139 -0.604749 2.110054 -2.433488 -0.879374 -1.386867 0.158829 -1.380745 0.727858 -3.952343 0.040286 -0.242277 -0.628672 1.249848 -0.258634 -1.527455 -1.528050 -2.606178 0.173598 -0.237029 1.220572 -0.460755 1.699335 1.411725 0.837938 -0.609554 0.018008 3.402290 -1.677709 1.756828 1.191183 0.979595 -0.336338 -5.344250 -3.361628 1.433483 1.567411 -0.128660 
have -1.870726 4.808473 1.440773 0.441994 -2.590824 -5.697810 -1.374815 -3.259001 -1.063579 2.018643 0.441500 1.015666 4.644458 -2.205766 -0.508855 -1.336570 -1.995767 1.424095 0.149952 2.170592 0.398092 -0.871517 -0.866939 -2.297827 3.193269 1.871476 -0.038033 3.118974 -2.632763 1.219713 0.156416 1.937192 -4.093065 -0.724791 1.626114 -0.929022 -3.242951 -3.336644 -0.416475 -1.896202 1.170182 -0.811648 -2.171095 2.857818 -1.343213 2.705995 2.661816 -1.533794 0.019460 0.637465 2.028521 4.019965 2.140686 -5.410660 -0.703777 -0.499709 -3.574358 0.286026 2.886281 0.489640 -0.793478 -0.323423 -2.774788 -3.359346 1.146034 -2.996675 -2.798616 -3.915232 2.202018 -1.386586 0.886513 -1.922300 2.299207 -3.165051 1.952853 -3.752847 6.343168 -1.952985 3.859176 4.153082 -0.460019 1.449134 -3.728968 2.347966 1.026546 -1.150220 -6.027665 -0.184805 2.847883 -0.092398 -0.300461 3.548286 1.710771 -1.516132 -2.276118 -0.576926 -2.346617 1.996406 0.430671 2.716573 
should 1.010166 -1.455887 -0.812724 2.733500 0.769794 -3.245181 -1.828846 -1.184160 -0.753181 0.172583 -0.731138 1.266015 0.555315 -1.496764 -1.357518 0.853251 1.085308 -1.311628 -2.830786 -1.224531 -1.327782 1.072220 0.722022 -0.561074 -1.568165 -4.072389 0.388928 -4.465694 -0.950913 -1.556250 -2.775671 3.494571 7.355750 -1.107332 -1.757358 -2.424493 -2.849942 -0.661581 2.707094 1.335791 -1.547789 -1.243966 -2.764531 0.934209 -3.033761 -2.264126 0.672984 -0.107957 -0.105866 -3.948193 -0.872037 -1.426667 -2.139809 0.535967 0.142478 -2.894956 -1.979984 -2.206339 -2.380321 0.804993 1.377553 -1.087666 1.190354 0.062309 -1.840246 1.074606 6.079423 -0.358495 2.209982 1.194266 -2.518416 0.061773 -0.851544 1.617172 2.312632 0.927583 1.350157 4.080171 0.241543 0.450900 -3.032367 -0.983722 4.320330 -1.134029 -1.891750 -3.940283 6.405982 1.173319 -0.330991 -1.875203 2.441165 0.685552 -2.320827 2.511033 -1.399221 -1.704557 -2.247473 -1.353442 -0.051779 0.150553 
having 2.617084 4.399483 4.223682 -1.156398 -2.908026 0.609049 -2.427957 -0.295388 -1.687585 -1.342895 0.804213 1.104914 0.853385 0.291128 -0.745951 2.454168 -0.203784 2.015183 -2.911966 4.642491 3.686308 -1.528876 1.693228 0.195548 -3.683447 -0.055590 -3.705720 -0.296957 0.039487 -0.427208 0.432488 0.009382 2.798006 1.499916 0.887885 -5.601902 -3.910533 -0.003795 0.613825 0.727433 -2.653485 -4.007140 2.636616 5.089549 -4.685533 0.007188 -2.523301 0.420911 1.077637 1.963430 -0.551659 2.304006 1.565850 -2.534460 0.956332 -1.267145 2.361266 1.417365 -3.127939 -0.122154 -1.575307 1.045514 -1.409625 -2.754894 -0.092688 -0.708757 -1.674781 -2.213844 -0.392009 1.976076 -0.156532 -1.927621 -1.652748 0.002960 1.145333 -0.076636 0.307524 1.146103 1.143461 3.002622 2.501886 2.982834 -0.259016 -0.980436 1.082665 1.349738 -1.247276 -1.491062 0.155705 -1.589384 0.593682 0.771809 2.800882 -2.127702 1.108310 2.560507 -4.243071 4.017733 -2.611445 1.230579 
sent -0.277290 0.707082 2.185239 2.017079 0.129664 -4.418034 2.867513 -2.380119 -1.225102 -2.978960 -1.005898 0.993757 -1.068586 5.617483 -4.075730 1.015431 -0.979852 -3.386832 -0.584988 -1.533572 2.066728 1.302219 -1.825873 2.725719 -1.792750 -0.753238 -0.588041 2.563953 -0.065408 0.855395 -0.367104 -0.939370 -2.511628 0.767058 -2.382004 1.712641 -2.708285 -2.641431 2.750824 -0.652738 -0.222347 -0.726578 -3.900377 -0.926286 0.869585 2.131907 -2.489894 0.378507 -0.596245 -1.086919 0.414324 -0.334108 -1.605825 2.212055 -2.772466 -2.944915 -0.026553 1.143215 0.566797 -0.872948 3.546350 -0.768369 -0.189487 1.687321 -2.255132 -0.684718 -1.973938 0.718446 0.312120 2.069087 0.694026 -0.033646 -2.617125 1.305719 0.089263 -2.182109 0.633953 -3.634316 3.158820 2.213338 2.640354 1.554270 -0.165316 0.892757 -3.123345 3.187429 4.750190 3.419656 -2.436957 2.244061 3.080512 0.247236 -1.801896 0.780505 -1.399097 -0.907871 -3.270391 3.943789 4.191173 -1.677253 
first -0.956214 -1.046785 -1.600947 1.005093 -0.226028 0.397253 4.138885 -0.451886 -2.404443 -2.063688 2.069994 -2.387031 0.114435 -1.288198 1.318064 2.339417 2.195425 -0.918536 -0.354190 0.167345 0.697155 -1.221364 3.540810 -0.637365 -0.692600 -1.823786 -0.048068 3.049054 0.506198 -2.937671 -1.609278 -0.185609 2.334663 0.693422 0.941716 -1.944308 1.514524 -0.646158 -0.999099 0.950452 -0.806543 3.047801 3.054477 -3.224510 -2.983387 0.741154 5.398103 -0.027883 3.100884 -1.074395 1.286097 0.869625 -1.347885 0.437940 -1.799117 -1.732404 -0.567579 -0.337429 -0.853236 1.254006 0.538129 2.673156 2.728240 -3.090372 -1.019520 0.407700 -3.464521 -1.458602 1.589590 1.477975 -0.293393 -3.211706 0.270899 -1.683243 0.940108 0.247008 2.443442 -2.419922 0.326437 -0.810657 0.586007 -1.279453 -0.635390 1.394061 0.277792 -0.517983 -0.016177 -1.101013 -0.209255 0.022636 -1.027809 0.979431 -1.880180 -2.406491 -2.169959 3.150633 -1.663032 -0.741915 3.245075 -1.032881 
took 1.542635 1.397568 5.792592 0.972457 2.899330 -1.956752 -2.092897 1.203069 2.573477 -2.640072 -0.511039 -1.857409 3.990152 3.937503 -0.198708 0.238131 -1.372776 0.285398 -1.673764 -0.554952 -2.541961 -0.015741 0.617207 -0.711526 -4.695640 1.105432 2.106369 3.084693 1.824485 0.441442 -5.066317 0.140195 -0.380285 -0.903656 2.438603 1.000167 2.780050 -0.759516 -0.017728 0.373792 -3.641542 -2.800678 -0.530805 -0.992190 -1.404761 -1.521405 -0.947999 -1.012798 -3.734713 1.787654 1.614672 -0.906045 2.462992 0.135471 1.533899 1.320025 -0.189865 -0.083251 -6.624266 1.134815 1.435380 -1.843615 7.058216 -0.189691 2.748301 1.481087 4.101386 -1.357659 -0.308853 -2.156880 0.698948 1.793973 0.732549 0.667216 -1.605158 4.013247 0.406302 -0.897884 4.190082 1.851537 0.326784 -2.269068 -4.270105 1.290264 -0.784869 1.338997 0.801057 -0.294115 -0.244150 3.335181 -0.259846 2.085368 -0.385901 1.653438 -1.657699 4.080107 0.385187 0.536193 1.734505 -0.339528 
after 1.501910 0.246205 2.535762 3.379136 -4.004229 2.135083 -0.165662 3.119683 5.311650 2.919602 -1.322889 -1.369704 -0.898795 -0.066124 -1.181106 -3.574923 2.876860 0.746438 -5.733828 -3.096937 2.037385 -0.422552 -1.152765 0.446701 3.034135 -1.394941 0.695904 3.379735 0.016356 0.196067 -2.483579 -4.445768 -0.038042 2.737755 -1.165201 0.660638 2.561818 -2.172492 1.118431 3.120570 0.590685 0.387533 0.464695 -1.548287 -0.780842 -2.402870 -1.781970 -0.666480 0.959878 4.785934 -1.088999 0.269353 1.004869 3.557404 -4.120153 -1.249333 -0.739503 0.768003 -1.078339 2.212155 -1.137289 0.344176 -1.775656 -2.974572 0.972714 0.936611 2.858997 -1.763540 2.048377 -1.729787 -1.036211 -1.837772 -0.347368 -1.255701 -2.382111 -0.218689 -1.079995 -0.982925 0.574724 2.922660 0.552675 -0.564709 1.690072 0.954061 1.448219 3.233765 -1.320873 -1.737541 -1.844865 3.503478 3.118834 2.039309 -2.541398 -1.492206 -2.650879 -1.832925 0.726206 1.488836 1.206617 3.904201 
brought -2.650986 -2.459172 1.716278 2.032700 3.758632 -1.870213 4.473423 -0.845507 -0.477969 -1.956210 -0.400605 -0.795067 -3.129216 2.293696 -2.105355 0.451435 0.212088 1.827553 2.293964 -2.757884 0.199916 -0.587720 0.812238 1.760779 -3.496777 -0.964787 0.916023 1.594960 -0.320524 -1.775705 -2.204800 4.406464 -0.071684 -2.952968 -2.283596 0.362044 0.371741 0.681665 3.846575 1.724267 1.007642 -0.477811 -2.460560 -1.315237 0.946195 -1.901151 -1.938910 2.688898 -2.822665 -0.766836 2.461434 -1.875566 1.389897 0.028486 0.568971 -1.405655 -1.775094 1.359420 -3.932649 1.739467 1.760789 -2.753266 4.960532 -2.430312 0.166010 0.284119 0.327712 -1.485687 -1.439777 2.554529 -3.061196 -0.450824 2.794688 2.986963 -3.786359 0.141938 0.131045 -4.274633 3.957010 -0.113446 2.795456 -0.636505 0.391139 0.960971 -3.936656 2.355668 -2.933367 2.788487 -4.204079 -2.394527 -4.126606 2.237890 0.228743 1.796403 1.506716 2.889718 -1.449276 -1.292843 1.397266 -3.881859 
one 1.765040 0.498714 1.322518 0.337438 1.092800 -1.980233 -0.482726 -1.647275 -2.727274 3.799715 -1.670940 -0.547381 1.541250 2.072892 0.266430 1.710068 0.336709 0.412617 0.186140 0.223525 -3.250816 -0.835232 -0.022437 -0.489910 2.139560 0.363805 0.822308 -1.488044 0.362628 -1.602628 -1.415449 -1.426881 -0.763692 2.860655 0.660768 2.128099 -0.798494 0.021000 2.402667 2.769249 -4.333246 -0.164874 0.374295 0.130905 -0.514408 -1.319311 4.421240 -0.627843 1.191295 1.754231 0.905316 -0.817527 0.948429 -0.803141 0.584886 -1.291061 -1.474491 1.741824 1.039262 -2.474474 2.146005 1.268273 5.763916 1.431386 2.900515 -0.469675 0.376723 -1.986218 -2.037749 0.671107 3.139489 0.109994 0.962638 1.029022 0.764389 2.495365 -2.949058 -0.914296 -1.364696 2.407815 -2.133756 -3.150058 0.392617 3.159177 1.283241 -1.155577 -1.945507 -3.182575 0.399517 -1.053103 -3.133910 -1.403857 1.185920 -1.740716 -2.195101 0.815738 2.585168 -0.426014 1.497378 -0.657849 
married 1.382177 -2.653912 -4.910502 0.509763 -0.694330 3.068305 -1.468611 -2.437279 -1.572777 0.452374 5.186406 0.448324 -2.779953 4.425623 0.194264 -4.590807 1.069408 2.736349 -2.157649 -2.024374 -0.470440 3.717061 -3.617092 1.934858 -2.916732 -1.193047 0.722715 0.377573 -1.334859 -1.666507 0.177968 0.424405 2.511769 -1.111680 -2.799348 2.414341 0.631697 2.798263 1.836860 2.368730 2.805755 -1.622037 1.797795 -3.033519 -1.262955 1.048269 -1.113590 1.017229 -1.526882 0.506090 0.021102 4.541471 4.812827 3.851013 -3.122761 -0.663319 1.158216 -0.903679 -1.776848 -0.052013 -0.800211 -0.124252 1.692884 1.581948 -1.609047 1.104860 2.364898 -0.007779 -1.542501 2.816033 1.423526 -0.674704 0.237043 -4.828321 2.933206 1.570302 0.086924 -2.433402 1.597676 2.703041 2.401434 4.316988 -2.237568 -1.938186 1.240227 3.033195 -1.419916 1.751096 1.829197 0.020929 -1.200324 0.516814 -0.467596 2.563593 1.275521 -1.572089 4.137072 -2.222392 2.820133 -0.517884 
wife -1.898786 -2.764543 -0.491260 -1.067970 -0.434201 0.100620 0.097583 -2.419703 -3.276464 3.112143 2.806358 2.239659 -0.406715 -0.675662 -0.017467 -5.231389 -2.091576 -1.236564 -4.283144 1.187026 -1.630593 3.124809 -0.647874 1.518820 0.678946 -0.811660 -0.738094 0.552953 -1.476971 1.403018 2.931125 -0.011328 0.429620 0.981124 0.457139 0.453297 -2.237554 1.700453 2.213870 0.476319 -0.641354 -0.246586 -2.294590 -2.229084 1.619373 -0.150514 1.513117 -1.300855 1.066814 1.477093 0.305169 0.536404 -1.756402 0.905864 -1.214753 -2.397135 -1.245052 -1.864930 -2.631785 0.077537 -0.220987 -3.310467 2.980999 0.547629 -2.823113 -1.395532 -0.337606 0.706640 -4.935525 1.329242 1.534191 1.839959 -0.395357 0.072469 -1.357584 -0.090364 -1.069690 -0.132560 0.084846 -1.621369 2.348592 1.328101 3.481305 -1.143736 -0.872695 2.577436 1.931339 0.834793 -1.135982 -0.593282 0.261893 -0.344660 -1.778399 1.678567 -4.262804 -1.346987 -2.767276 1.335393 -1.686167 1.854053 
being 1.762149 2.469096 -0.930591 2.785084 1.924895 -2.193337 -4.045700 2.165852 0.148763 1.530522 -3.889379 1.806584 -0.725127 2.490893 0.979255 -0.859169 1.270224 -0.719766 2.046789 -0.109786 -0.015913 -0.345530 1.182263 -1.340620 -1.804304 -0.336006 -3.865378 -0.154566 -1.100145 1.035796 3.529456 2.206057 0.457542 1.555852 2.988635 -1.647831 1.306819 -2.670986 0.209601 -3.274538 0.515031 -1.819396 1.076913 -1.455447 -0.178867 -2.754386 1.462507 0.486913 -1.423317 0.932541 -3.617663 0.014369 -0.947027 -1.199402 2.153402 0.073125 0.783054 0.736596 -0.509586 -1.350304 -4.171535 0.801453 3.435704 1.248372 -2.844408 -1.035906 -3.753425 0.971628 -3.500981 1.467174 -0.243842 -3.340301 0.336024 1.448863 -0.788878 0.104624 -5.024805 1.142685 -1.273690 1.685416 -1.291652 3.340710 -3.817081 -2.290372 -1.692026 -0.799598 -3.926573 1.720118 -1.932973 5.065123 2.625305 -1.082983 -0.064534 -0.003858 1.284524 1.097996 -1.726817 2.131700 -1.447866 3.313872 
if -1.798734 0.034882 0.526490 -1.578936 -2.208860 -2.839963 1.521773 -0.890366 2.447142 -2.314908 -0.417301 -0.150557 5.632147 -1.492216 -0.274918 1.132313 -2.691130 -2.007869 0.338585 -0.199118 1.598691 1.750651 -2.409917 0.343109 -0.485159 -2.843107 1.500677 -0.772996 -0.007685 -0.262733 -0.689065 0.699983 4.132735 3.607615 0.995985 0.468699 -1.676291 2.045353 3.888192 -1.124210 -1.427049 1.755607 -3.061439 -0.462612 1.494637 -0.044302 1.188203 -0.700843 1.866826 -3.890509 0.493330 1.246650 3.953634 3.426734 -1.642191 0.682493 2.315177 1.093523 0.341314 5.765446 1.826457 1.490863 -2.574598 0.148113 1.691906 -1.610983 1.958339 2.527779 -0.420085 -1.102811 0.865265 -1.523158 0.458526 -0.131677 1.707857 -0.889288 -0.751068 1.358344 1.403774 3.334764 -0.302179 2.077353 0.660703 0.377232 -2.537162 -4.493018 -0.790143 1.673683 3.598211 1.361267 0.016653 1.871653 3.216710 -4.087303 -0.414150 0.234701 2.509905 -2.002127 -0.055562 -0.694400 
put -0.182484 -4.909276 0.806182 1.569083 0.056037 -1.703761 -1.798640 -3.534349 0.162905 -2.432623 -2.448231 -0.204127 -2.299315 1.882454 0.766853 -2.305522 0.968765 -1.614480 1.904979 -3.720101 0.101343 1.472684 -1.853084 -0.001044 -0.366180 -2.080846 -0.710733 0.045318 1.763108 -3.321358 -1.022113 2.328186 -1.806953 -1.188243 -1.114964 -0.105460 3.036547 -0.063903 0.168356 -0.319022 3.028831 2.292986 1.940542 0.857585 0.235148 -0.771186 1.594950 -2.586762 0.187880 3.600549 3.342352 -3.700071 -1.248567 4.084872 -3.373096 3.649508 -1.341188 1.048593 1.692048 -0.089354 1.601369 -2.607064 0.157714 0.278951 0.419520 0.746447 -1.206542 1.597122 0.047563 -3.096834 1.337289 -0.092366 -1.216431 -3.278641 2.865995 -0.699523 0.200373 -3.088950 4.037076 2.060410 0.631030 1.124131 3.009289 1.405514 -0.100032 0.132339 0.219716 -0.627001 0.075801 -2.694664 -4.468048 -1.345837 0.824612 -1.717555 2.405266 1.636639 -1.840609 1.679015 2.530672 2.541056 
say -0.939193 4.672698 -0.017428 1.786285 -5.513226 -0.908469 4.284443 -2.999499 4.282688 2.480735 -1.455421 6.599718 -1.550102 -1.481811 0.111361 -2.009670 -2.907524 -1.351069 -2.179086 -0.820615 1.319350 -4.831351 -0.935378 0.047655 1.893315 1.140645 2.697383 0.080029 0.512913 1.101212 -2.088471 6.449796 -2.163657 -0.145595 0.354701 2.094670 -0.193058 0.557867 2.260357 -0.890745 -1.602373 -3.235834 2.054519 -0.585119 3.155546 3.610343 -0.901622 -2.416371 -0.408833 1.817703 -0.384520 1.723749 -4.169346 -1.053626 4.077748 0.657704 -1.522301 -3.009011 -5.856446 -1.552823 -4.900002 0.905780 4.286372 -2.340728 -4.345486 1.131076 1.174198 0.972610 -0.813629 1.113392 6.751655 3.799452 -1.279599 -1.789872 -1.189198 0.050521 0.017180 -2.451240 0.595832 2.504691 0.411863 4.442866 0.959012 1.416250 -0.974530 0.202217 2.920379 3.412822 -0.617672 -2.131926 -2.364033 -3.731918 -1.760010 -2.562170 -1.919691 -0.573942 2.463954 -4.741923 -0.799439 1.974226 
some -0.323788 -3.192557 0.145929 0.136885 1.472726 1.520732 2.421086 0.432631 1.975800 1.502675 0.505100 -0.406041 -2.088743 -0.544189 -3.520550 1.371286 1.373190 -0.658357 -1.525728 1.973164 -1.767514 1.026340 -2.497768 -1.562561 -3.666017 -1.376374 -0.731421 1.734036 1.316513 -3.331241 4.016881 0.733589 1.584320 -3.179441 0.184580 -0.753240 -5.392506 -0.673706 -0.243589 -3.034360 -2.332802 0.577460 -0.072999 -2.622555 -0.896077 -1.566971 -1.446202 4.830500 -0.879554 0.140339 1.636864 1.991045 3.240067 -2.168588 -0.235885 -2.336778 0.082756 2.626113 1.262702 1.752066 1.181499 0.525858 -4.081161 4.505734 -0.010530 -1.564611 -1.045668 1.299351 -2.380446 0.634655 2.387806 -1.642657 -1.076726 4.596565 -1.830891 -1.943502 -0.297860 2.163701 -0.400783 -0.700140 1.338627 -4.901255 -0.187536 -1.642460 -3.765573 -0.316542 -3.026293 -6.296847 1.955675 1.160830 1.707762 -3.451413 2.208860 2.510069 -6.123224 -0.810256 -1.925256 -1.404664 0.653477 -1.156936 
king -4.486639 -2.916589 -0.885155 -0.905036 1.853986 -0.793727 -1.534093 -0.338003 3.711040 -0.054867 4.583270 0.231015 -0.135935 -3.344609 -2.401005 1.000230 -0.543678 1.103037 -0.172765 2.258612 1.063093 1.163511 -1.494277 -1.719792 2.964547 3.039020 -0.929433 -0.347527 3.527348 -0.329581 1.626202 0.697314 0.301860 -1.710631 -0.163722 -4.956894 1.341960 2.657734 0.425008 1.096136 -1.915516 2.852332 2.631502 2.528913 0.272468 -1.624910 -1.530234 2.426758 1.239592 -1.104408 0.894829 -2.419207 -0.539977 0.538580 -0.298613 0.457438 0.025832 -2.358597 1.768316 3.212719 -1.226538 -2.433589 3.991677 -1.727747 -0.939146 -0.994108 -0.756417 -0.386511 -0.091420 2.043557 3.330717 -2.077375 0.465731 0.430647 2.128152 3.094707 -2.859470 0.495662 1.106153 -0.151473 -2.200862 1.695375 -3.470521 2.570278 -2.718456 -1.640797 1.455142 -0.065663 -2.943047 1.908609 -2.846444 -4.845378 -3.546618 -0.258722 3.236924 -3.310540 3.064654 -2.740276 3.773693 0.245623 
brother -1.193033 -2.077744 1.760662 -3.890832 -0.224604 2.329792 -1.070640 1.261179 -0.050948 1.722612 3.223186 -0.743999 -1.109933 0.656491 -1.204605 1.141168 -3.359311 2.454634 -2.448517 2.227605 0.458012 -0.376131 -2.179003 -2.342258 0.952695 -1.817137 0.404459 3.178070 -1.784898 -1.455076 -0.428967 -1.783566 -1.593491 1.750176 -0.859548 -1.418672 -3.372698 0.249876 0.385314 0.738892 2.276802 0.216122 -1.212133 0.207386 -2.549841 -3.177460 1.723575 -1.424979 -5.537213 4.190842 0.407631 -1.429089 -0.303171 0.175147 0.348657 -0.744008 2.261065 -1.754706 -3.867202 1.935066 0.463766 -2.409113 0.031749 -0.334196 -3.703114 -1.554505 -0.111690 0.029576 -0.194566 -3.208204 0.101743 -1.633221 1.423082 -1.825748 2.695220 0.771681 -2.251348 -0.590836 -0.986012 -0.143755 0.294173 -0.010769 1.344960 -1.054793 -0.564788 -3.114317 1.301417 0.586703 -0.081010 1.502647 -2.622929 1.664929 -0.267255 -4.807054 -1.976975 -0.620051 1.901927 -2.491512 -4.835246 1.708928 
death -4.862366 0.864649 3.380096 -5.094726 -0.026356 -1.292607 0.984426 1.691640 -0.349947 0.531425 1.245331 -2.302701 -2.530990 -0.766836 -2.883471 -0.982301 0.666187 2.407302 -0.093394 -0.624313 -2.401223 -2.506311 2.660161 4.314167 0.480999 -0.963727 0.242077 -2.141812 -0.411996 -0.426515 3.304944 1.412415 0.120602 -0.498971 1.854155 -5.943707 -1.218370 0.547197 1.428109 -0.530081 -2.534503 -2.032671 -3.318620 1.975156 -0.892577 -6.111802 0.384397 2.978082 2.003650 0.587785 0.018373 3.632576 -2.224213 -0.767008 -0.703848 -0.289687 2.955000 -2.649929 -0.721729 -1.537953 -0.967535 -0.205080 -1.148259 2.051199 0.901114 -2.350577 -2.102131 1.883455 -3.765262 1.050205 1.587853 -1.399478 -0.543838 2.056286 -0.582777 -1.094779 4.762136 -0.115473 -2.721592 0.798537 0.840389 -0.076322 -0.322344 -2.145086 1.594782 0.942389 0.598264 0.717052 0.699550 -1.485892 1.752570 0.082763 -1.457994 -0.544293 -0.063670 -1.472005 -1.560882 3.421656 -4.356957 -1.574153 
kingdom -0.045353 -2.742505 -2.776774 -0.277961 0.052158 1.240929 -2.252450 0.509301 -2.149440 -0.289851 -5.070704 -2.881398 -0.453677 -0.980336 2.662524 -0.227997 -0.532971 1.394958 -2.884496 4.295853 -4.340274 -2.162923 0.887076 2.190595 -0.685843 -1.670504 -1.479903 5.169927 -6.180123 -0.166944 1.785305 -2.490113 0.113957 2.405153 3.239927 -0.823934 1.576829 -1.591116 -1.375419 -0.669364 0.034708 3.849557 -1.379424 1.633658 1.649042 -1.622215 -3.376117 3.532291 -0.017183 -1.159057 2.109315 4.583755 3.257112 1.025646 -1.106718 -0.626106 2.093916 0.602970 0.127325 -0.001605 -1.683663 -2.454901 -0.816261 2.424522 -0.112028 -2.142053 3.210016 -0.140577 -0.454946 0.386930 -1.251630 1.722489 4.445443 -1.107051 1.431573 -1.305189 1.610629 0.716170 3.365376 0.824567 0.978978 2.200167 -0.147954 -1.082927 1.416573 0.135329 -1.500753 -2.526984 -4.490646 -0.085011 -2.502769 -2.023917 -1.646331 -2.719664 2.500311 4.003239 -1.520986 -5.077938 0.787843 -1.088246 
sea -2.317781 -1.571259 2.112215 -2.736022 0.064107 -0.390730 -1.910164 2.590942 2.293164 -0.624218 0.547591 -1.664913 4.829483 1.179302 -0.119116 -0.796708 3.124427 1.219536 4.100864 -1.531331 -4.690668 0.798421 1.564918 1.404716 1.396387 -0.965939 1.428433 1.191529 -3.369120 -1.219631 0.781809 -2.120540 2.638774 -0.987564 -0.920147 -1.078197 0.396447 -1.875022 1.696350 2.108864 0.132572 1.500054 -3.069868 -1.669649 -0.735390 1.989158 -3.016495 -1.472275 -0.278393 1.876131 2.882763 -0.774284 0.005439 -1.501628 5.618828 1.608091 3.589733 0.872936 -0.449869 -2.786063 -0.141647 -1.480993 1.206127 -0.500140 3.104907 -0.242316 -2.085005 2.243383 -3.689667 2.558502 -1.477131 -0.483692 0.458419 2.907180 -1.770511 -0.513955 -3.002165 2.133207 0.244020 1.650038 -0.648088 1.573713 -5.963352 -0.581014 -0.893116 0.037999 -2.875638 1.959406 1.613522 0.144261 -0.130435 -0.483026 -0.001916 0.873949 0.780519 1.675842 2.487803 -0.076699 -3.118511 0.601779 
daughters 1.328421 -0.246228 0.971142 -0.201009 -2.601709 0.730443 0.715551 -0.460148 0.248300 -1.315042 -0.724170 1.723082 2.965605 -0.445749 1.178084 1.839504 -2.532994 0.824309 -0.751691 0.155056 -0.370656 -1.601124 2.506510 2.934536 0.368361 1.611716 -3.135216 0.965490 -2.077216 -3.049976 0.835072 -1.215881 -2.114341 1.772917 0.126170 -0.100223 -1.720348 0.300165 2.109427 3.505832 3.987997 -1.613133 0.405738 -2.179834 0.225368 0.061222 1.995066 -0.895165 -2.878021 -0.963563 1.682267 3.435843 -1.143146 1.266342 0.146168 0.421255 0.125828 -0.592696 -1.978640 -1.101815 -2.118430 0.382580 -2.776192 2.216603 1.019098 -1.226872 2.415913 0.138912 -1.761575 -2.049884 -1.274140 1.081052 -2.698281 -4.521477 0.776532 1.654914 0.149302 0.261437 -0.151970 -2.997242 2.209491 -0.117224 4.187707 3.148452 0.024377 -0.529061 -0.764145 -3.762654 1.162285 -3.021988 0.541893 -1.966534 -2.353257 -1.907945 -2.719862 2.276863 -2.240749 -2.605408 0.698358 1.689837 
over -3.194174 0.379771 1.870006 2.334915 0.339274 1.999927 3.202069 -3.465662 -1.038788 1.880553 0.076221 -1.058977 0.152323 -0.084553 -0.321059 0.035808 -1.218109 0.183743 -1.610817 -3.685387 0.490620 -1.043777 2.230222 0.430251 0.797515 0.858670 -2.615139 -4.360316 1.048499 -0.944621 1.127457 2.181089 0.114897 -0.732452 0.767899 -2.403695 2.170764 2.248418 -0.150283 4.313507 -3.141984 -1.546634 2.226860 2.349270 2.004764 -1.548154 0.701083 0.139371 2.751243 -2.805822 -2.428141 1.822341 -1.524538 0.787987 -0.656274 2.946499 -0.246018 -3.456060 -0.970501 -0.213954 -2.626337 -1.985598 -3.083012 2.206298 -0.951659 -1.503080 1.180837 -3.912224 5.749013 -1.795861 2.623719 -2.143288 -1.935627 -3.873034 0.439635 -3.292093 0.483547 -4.673067 -3.048673 -0.074094 2.149414 4.238113 -1.750752 -0.139396 -0.248169 -1.213326 0.266151 1.386731 -3.963778 2.188780 0.617459 1.182159 1.214645 -1.319914 3.251009 -5.799923 -1.935925 1.385954 3.121361 -0.172528 
come 0.156403 -3.302010 -1.458371 3.372186 -1.792672 -0.209340 2.058491 -5.144549 -1.498770 -2.967366 -0.321456 -1.419009 5.003356 4.713554 1.144664 -2.717004 -0.119343 -0.220951 4.394859 0.515213 -1.120398 1.147737 -1.553964 1.793600 1.861150 0.323874 -2.576475 -1.234043 1.605063 -0.545222 -0.954615 1.031868 -3.939692 3.140464 -1.243459 4.685402 2.307389 0.250990 -0.488449 0.966696 -0.617617 4.642632 -0.901648 -0.320837 5.106976 1.371096 2.305786 0.697596 -4.143579 0.008917 3.443546 2.202250 -0.226543 0.380292 0.624161 0.665841 -1.192937 0.858251 -0.486062 0.492022 0.101647 -0.514802 1.495506 -0.625184 1.946616 -3.116828 1.951692 1.217971 -3.366194 3.538393 -1.224129 0.650064 -2.245878 1.414395 0.917617 0.487239 -1.200175 -0.395130 2.239868 -1.993473 3.545438 2.154796 4.721571 -2.275870 1.309551 -0.584260 -2.608061 0.490776 1.604353 -1.050673 -2.642571 0.989537 -1.584664 -1.880073 3.681396 -0.042300 1.279816 0.916224 0.194311 -0.997155 
could 2.496221 -0.300933 0.169403 4.174296 2.772250 -5.161706 0.925806 1.581062 4.584362 -2.286287 3.913751 4.393203 -0.594045 -0.693722 -4.173378 0.004989 -1.935531 -5.660814 -3.336776 -2.867219 -1.034156 -0.558068 1.540582 4.680868 -1.949353 -2.644616 1.959890 1.964544 0.337157 -0.457888 1.617964 0.237769 5.385541 0.042081 -1.965017 -2.338073 2.568238 -1.937336 2.401459 -5.104430 -1.292209 4.481534 -4.048051 -2.428372 0.930235 -1.628091 -0.005029 1.694348 -3.890871 1.248410 0.763640 -0.398794 -2.156643 0.689761 0.147041 -1.353772 -1.691424 3.400890 1.673493 -2.266138 -0.807273 -1.588224 2.788808 -0.672973 -0.853666 1.598211 -2.669976 -2.317147 0.402338 0.274445 0.677123 2.332009 2.308896 5.373220 -0.197320 0.869252 0.232980 4.054494 -0.041597 1.029764 -3.784727 0.322886 2.302910 -0.252645 2.159842 -0.575886 4.917213 -4.276864 -0.450265 -0.366020 -2.024775 1.324720 -1.347154 -0.408859 -4.404583 -1.287448 -0.986629 -0.755708 0.168045 2.097634 
went 3.265225 -1.492127 0.462558 1.685647 -1.354483 -1.921415 -0.039224 -2.208752 4.238988 3.342080 1.343699 -1.121592 -1.511900 3.568571 -0.018632 -0.642086 -0.007399 2.648318 2.643862 -3.165079 -1.556895 -2.181483 -0.166549 -1.411387 -4.516847 1.713983 -1.611060 0.349925 -2.532125 2.362095 0.317257 3.996061 -0.604933 3.713485 0.484672 -0.048931 1.042688 -4.978691 -0.128830 0.349436 1.357740 0.596108 -4.709830 -0.085144 -0.680678 4.265109 -0.298946 2.232370 -7.024812 -0.157067 1.178564 1.194026 -5.085905 -0.463131 -2.820804 1.738518 -0.062331 -1.545942 0.800445 -3.331651 0.158581 -1.876007 1.977328 -0.090588 1.933694 -0.012653 3.278105 -1.201158 -3.640414 0.190849 3.780888 1.295453 -2.473348 -1.036138 -0.347335 0.063148 1.577334 -2.039133 4.287218 -0.591199 -0.485984 0.655542 -1.993252 2.746013 1.071062 3.546970 -0.141667 -0.080002 1.460020 -2.416752 2.622205 -0.520702 -2.198757 0.030289 0.419186 -0.854316 0.279992 -0.885040 0.884717 -0.980594 
King -3.401335 -0.036017 0.263148 -3.176823 -1.065926 1.071643 1.107565 -0.543692 1.137008 0.566696 0.152940 -2.000753 2.284924 -0.043925 2.653615 0.765581 2.677354 4.513254 0.349908 -0.863016 0.048497 3.249878 0.870132 -0.446343 3.918340 2.785737 -3.152638 1.630474 -0.385264 -1.670572 1.224593 0.014714 0.411255 0.908761 -2.494539 -0.555439 -0.015009 3.074835 -1.125181 1.347268 -1.217518 -0.969847 3.882550 0.459817 -0.006568 -2.229219 2.249126 -0.728361 1.744853 -0.945585 3.242955 2.386099 -0.331189 1.425694 4.483137 1.170618 1.838451 1.148350 -0.183827 0.706433 1.124189 -1.148146 -0.286639 2.550178 -4.585215 -1.596739 -1.716756 -0.191244 0.538627 -0.613659 1.200098 -0.679086 -2.276144 -3.365419 2.241414 2.338470 0.366118 2.587229 3.705545 -0.964283 -1.285304 1.336879 0.214623 0.270818 -3.240880 -1.909307 -1.548348 0.356514 1.814799 -0.840659 -0.296625 2.524194 -3.263859 2.255761 1.254580 -2.335347 2.702986 0.657846 4.751431 3.949061 
mother -4.370712 -0.535694 -0.029838 -0.590397 1.525826 1.467571 1.481422 0.993911 2.703442 -1.092419 6.088690 -0.292838 2.611931 0.820860 0.430421 0.711305 -2.721375 0.121883 -4.964326 0.907848 -1.278022 -4.124633 0.172677 -0.292719 -1.836560 3.410609 1.562554 -1.999878 -4.441529 2.885798 2.575382 -4.498413 -0.058224 0.506694 5.228068 3.448733 -1.716129 0.609161 -0.690282 -2.068696 1.407229 0.124754 -3.700873 -0.421405 -0.372244 1.078788 3.326009 -3.335016 -1.391936 -0.000801 -6.392853 -1.635835 -0.063692 1.793394 -1.243098 -1.341896 -1.898961 2.487311 0.382333 2.771926 2.124763 0.197199 1.456023 1.409049 -6.659419 -1.182305 0.481875 -0.400921 -1.729368 -0.021300 2.738141 2.533101 0.631317 1.232697 -3.205690 0.954372 -2.198198 1.167035 -0.830693 2.732280 2.054278 -1.177674 0.158826 0.129933 2.304989 -1.431969 -0.474709 -1.291392 -2.265611 0.849646 -1.649375 2.121040 -0.012849 -1.422315 0.947260 -0.441853 3.226589 -1.239499 0.817668 1.398351 
herself -2.965740 -3.725182 -2.610788 -0.625440 1.633556 0.597481 3.175079 -0.358997 -3.169697 1.608796 -5.158453 0.819079 0.218492 -0.031667 0.636331 0.713687 2.322950 2.623840 -4.795450 -0.188655 3.138992 1.218871 -2.842582 -3.669247 0.151155 -0.092567 3.263904 -0.047549 2.845324 2.989653 1.221066 1.126084 -1.001821 -1.380626 0.003349 2.932893 0.325339 1.456481 2.512793 2.201535 1.267731 -1.663454 -2.915779 -0.899273 -1.068520 2.057987 -3.378262 -1.205238 1.573913 2.107100 0.759053 -0.488374 -0.724102 -2.026761 -0.640681 0.671703 0.952692 -1.925118 1.776428 1.503941 -0.851632 -3.038618 2.423785 -1.456985 -1.689272 -0.790596 -1.631633 -6.277524 -1.632897 -1.660410 2.272027 2.474962 2.365406 1.426933 0.765072 -0.983555 2.715559 -0.859301 2.708913 -2.053126 -2.053439 -0.864601 -2.707308 -3.679040 0.646947 -5.307093 1.957103 2.491960 -0.729842 2.810103 3.725081 -0.170669 2.491585 -0.827322 1.146917 1.430322 -5.662598 -0.475159 3.230601 -1.401181 
all 0.784517 -0.179500 -2.552243 2.162392 -6.034371 3.056369 -3.175026 0.994258 3.098213 -3.061370 -1.687841 0.546844 -3.192096 2.836307 -1.900054 0.352619 0.308164 -1.154562 3.285417 -3.240823 -2.509380 -2.308972 -0.147918 0.403712 -3.744801 -1.281824 0.388107 -1.499424 -1.540776 2.801212 -1.520070 -0.663478 3.442216 -1.258479 2.384818 1.569815 0.418102 -0.607838 -2.243770 -1.859698 1.636285 -1.870180 0.733663 -1.076742 4.361419 -1.548995 2.198705 1.634021 0.284741 2.495817 -1.862584 -1.634416 1.032869 2.847338 0.415005 0.364200 2.881120 3.897152 -1.098352 0.394185 -1.747353 1.485601 0.922513 0.364015 2.351624 0.506551 -0.388998 -3.375821 -0.473855 2.121712 1.514915 0.507017 0.491781 0.361917 -4.167606 0.493004 -3.123246 -0.336772 1.180120 -0.930657 -1.929588 -2.377678 0.573610 -4.252509 -4.680514 -0.930849 -3.524456 -1.842901 0.544026 -0.779482 -1.095272 -2.027209 0.400060 -1.052982 1.014146 0.062160 -0.802896 -3.097315 0.216870 1.013623 
slew 3.747578 0.409019 -1.878997 -0.625400 1.158288 -2.594277 1.616876 0.676645 0.580899 2.505950 -0.041149 -0.515497 -2.011356 -1.100773 3.414001 2.171691 0.050357 -5.187883 0.556623 -2.153451 -0.323468 1.018395 1.924032 0.044494 -0.454214 3.179805 -1.934463 0.646259 -1.273782 -3.324014 3.802990 -0.289666 0.602889 -2.089124 -0.590068 -0.213977 -0.638687 -1.093925 3.701424 -1.700264 0.058419 -3.762097 2.790102 -0.162924 -1.642463 -1.493386 -0.893995 -0.983083 0.559214 -2.230908 1.823118 2.457836 0.975110 1.360235 -5.783668 -0.357282 -0.649098 0.818542 -3.652695 -5.608572 3.785379 3.511064 1.189065 -0.932147 -2.832457 1.069194 1.303442 0.935110 -0.502815 1.667220 2.409764 2.002486 -2.380809 -2.150921 3.366012 2.967342 1.492515 -4.209176 -0.361975 5.626556 -0.433023 -0.443438 1.465236 0.591311 -1.923771 1.706772 0.682980 -1.888483 -2.140486 0.512939 -3.997519 1.189989 0.644722 -0.812634 1.582168 -1.208941 1.902014 -2.493137 2.778495 0.279725 
are -0.240107 1.382736 -1.306882 4.758490 -1.952059 -1.742605 -1.066593 -2.409497 2.334514 -0.707267 -2.240129 0.700612 3.234164 -0.265991 -2.546010 -5.265032 -1.308835 -2.117517 -0.681883 -4.457431 2.092057 -4.152573 -2.947801 -3.725641 2.527108 0.148973 0.624821 -1.717793 -3.581267 1.059248 -1.094065 -3.026619 1.280676 -4.792668 -0.355691 -3.005158 -2.988975 -2.494380 -1.296212 0.365615 4.952576 -0.176782 1.379826 -4.889211 2.296978 -1.999655 -2.675541 -1.984764 0.991216 1.355258 -0.952338 -2.875051 -1.482807 0.535141 3.098711 0.180083 -1.174652 -1.264817 -0.530969 -5.177629 0.543345 7.428589 1.183777 2.389613 -0.843497 -1.961733 -1.865519 -3.150073 -1.080970 2.783627 -3.203176 4.857507 0.655730 -1.725980 -1.075008 0.176192 1.451336 -2.382481 0.223816 1.043120 0.624313 -0.375648 -0.014904 -1.730157 -0.098295 -4.767614 0.517865 0.016495 3.635279 -0.478815 3.165128 1.949291 -4.585254 1.306789 -0.963709 2.452171 2.776522 -2.027404 0.822837 -1.167254 
did -1.124655 -1.959005 0.526084 2.565897 2.357984 -2.836788 1.768686 2.294774 5.684153 -0.703187 -1.010241 0.704835 1.988973 -2.731552 -2.393364 -3.233380 -2.418038 -2.503443 -1.817314 -0.025147 -1.957418 -1.860349 -4.077817 2.851228 -1.852028 -1.545474 3.685738 2.352427 -1.168684 0.944921 -0.988994 0.504475 2.807353 0.653842 0.436224 -0.984972 5.332971 -2.013378 2.816360 -3.617148 -1.514956 4.812164 -1.804464 -2.855986 -3.033533 -1.801046 2.829548 0.748237 -4.708763 1.475018 -1.244736 0.842644 -1.966190 0.842670 4.447091 -0.546849 2.238945 2.052659 1.319298 -2.706998 -0.273669 3.162652 2.592923 -1.432870 -1.203160 -1.171616 0.940887 -1.422966 0.643767 -3.236152 -1.325606 3.043053 -0.612091 -1.939717 1.896279 4.551987 -0.395317 1.898685 -1.916042 0.613290 -4.213319 1.374778 2.560167 -1.240649 2.260421 -3.078634 6.041391 -3.242789 -3.921834 6.784881 0.789866 -0.832850 -2.514315 0.540119 -2.844954 1.440416 -4.068768 2.376764 0.806430 3.956609 
So -1.066620 -0.822465 0.063460 -4.424486 -0.829769 1.019875 -2.678503 0.417945 0.178770 0.280846 -3.726786 -2.626857 0.798779 -1.788069 -3.134389 2.949241 -0.981594 2.932919 -2.642634 -0.666712 2.949224 -0.461824 1.592984 3.328613 0.852235 -1.456336 1.084336 -3.932916 0.118653 2.278028 -2.086075 -3.509686 1.856897 0.201259 3.108323 2.159038 -1.079592 -1.985889 -3.063506 -3.026538 -0.706836 1.840869 -3.289592 -0.410604 5.011537 0.985309 2.227343 -0.418795 0.846115 -0.761668 -2.389296 0.618822 0.563152 -1.385137 -2.230810 4.959448 -5.466760 -0.574025 1.457308 3.309172 1.356021 -0.328931 -1.986268 -0.559269 -2.350782 5.707368 -0.919863 1.119397 2.754826 -2.007672 -4.034950 -2.987425 -1.136264 6.170111 2.219569 0.241466 -0.283179 3.464116 3.279265 1.152204 -1.322982 1.270208 -0.226625 -0.051275 0.082487 -3.607535 1.601190 -2.286280 1.127496 -2.009971 3.836534 1.921314 -0.861721 -1.654315 0.082004 -1.108506 0.474867 -0.082382 0.815914 -3.613543 
other 0.267700 1.449881 5.285798 -0.894847 0.157926 1.871446 2.245702 -2.683766 0.526846 2.171857 -4.368036 -0.400800 2.864721 -1.283834 3.584462 1.478368 -0.551292 -0.504193 2.326458 2.988250 -0.366861 0.044934 -4.351743 -1.033132 -3.219509 -2.004586 -0.335893 2.300916 -3.019277 -1.685648 -3.006512 -3.662564 0.528148 0.561506 -0.803693 1.752753 1.129760 -2.733402 -3.263421 0.242142 -1.896269 -4.214665 -0.851688 0.022151 -0.305108 -2.526808 -1.776590 2.235703 3.238448 -1.966760 -0.583824 -1.205690 -2.173240 -1.337460 -0.646514 -1.314278 0.468425 2.827745 -1.904412 2.539455 -2.853832 1.770448 2.518863 1.961223 2.285303 4.035993 -2.396680 0.248667 -1.030493 2.121555 1.918648 2.387708 -1.378939 -0.357059 -0.170040 4.210145 -1.873746 0.287221 -0.592014 -4.521386 -2.297232 1.002047 0.476153 -4.644217 -3.629951 -4.361852 -0.829461 -1.127303 -0.340383 -0.779308 0.855825 -0.432766 2.462278 -1.843578 -2.864044 3.556452 -3.305648 -2.969103 1.943078 -1.518863 
saw 0.723472 2.333362 -0.399566 -0.923887 1.523213 -0.807750 -3.951913 0.961859 2.487761 -1.918710 -0.951427 -3.663381 -0.093420 -1.204400 1.120339 -2.719648 -2.777828 -1.967818 1.868907 -2.845123 -2.121442 3.059145 -0.134993 0.861608 0.067858 0.182929 0.568328 -0.066308 1.699358 1.588065 -2.465933 -0.738046 1.053426 1.425191 0.451949 1.381078 -0.140729 0.010483 2.966777 -1.610679 -0.977723 6.210538 -0.003591 -3.748017 1.603547 2.364352 -2.846915 2.546427 -1.326658 -4.558768 -0.960345 0.754942 1.632341 -1.062282 0.667960 2.326893 0.715780 1.202929 -1.391114 -0.750558 1.635712 -0.310318 1.271989 -2.728187 1.775741 4.138586 -2.545926 -0.151722 0.033508 -1.366927 0.885704 3.029016 -1.974082 0.910611 -1.261059 1.396455 -0.989266 -0.557706 -0.078863 0.821437 -1.371217 1.120767 3.775188 -3.698731 1.064754 -0.970817 1.503540 -2.709555 -4.319805 1.352504 -1.233269 3.977108 0.270759 -1.736651 -2.134971 -0.783704 -0.272932 -0.916758 0.780166 -3.186557 
born 0.202825 -3.200516 4.079105 -0.678755 0.677491 2.806913 5.378829 1.817471 -1.334308 1.067301 0.500450 0.292165 -1.196890 0.920721 -1.646964 -2.507404 -2.496391 5.367371 4.372892 -3.304444 -2.588263 -0.644287 4.532687 1.202332 -2.329951 -0.795633 2.430279 5.085651 -1.833138 1.433858 -1.189736 1.340870 -1.480878 -0.092224 0.539789 1.421984 -2.600740 -1.076856 -3.522527 3.080957 2.735424 0.453321 0.698950 -0.206509 4.447419 -1.975873 -1.191116 0.308292 -1.199511 -0.530756 -0.911799 0.910820 -0.736037 4.209330 4.902703 -0.041745 0.841146 1.795542 1.317222 -0.047066 3.458378 4.268507 -0.390393 -2.328571 -0.089727 0.339142 -1.332284 -1.426178 2.608545 0.386026 0.158515 -0.442496 0.665879 0.092907 0.197096 -0.715259 -0.631066 -7.296820 1.482251 6.542225 2.644755 3.453871 -0.346635 0.524288 -3.024416 -2.870384 -1.830621 1.972787 2.520394 0.483787 -2.649294 1.460335 1.407460 -0.455895 -0.026980 -1.497954 0.337945 2.661927 -0.874583 -2.070889 
off -0.109866 0.209060 -2.244296 -0.352236 -3.187641 -1.673692 -0.539888 2.617777 0.376847 -3.854478 0.018890 -1.379553 3.130400 -4.862452 0.773779 2.610557 2.468451 2.251932 0.915880 -4.351872 -0.014772 -2.320872 3.616562 1.003749 6.215460 0.605952 -1.276650 0.466786 -1.222041 -1.009002 8.437294 2.158762 1.675074 -2.272076 1.360440 1.912642 4.895617 0.908113 1.500716 -0.835221 2.284291 0.503644 -3.827817 0.363400 -2.910715 1.949449 -1.812543 -1.798130 -2.559637 0.858582 -3.673203 2.522018 -0.523877 0.721119 3.033568 -2.315454 2.316233 -2.897721 3.649217 1.626994 -1.065253 -1.822058 -0.737827 2.747778 -1.481204 2.972214 1.316682 1.544975 0.363369 1.002718 0.645392 0.997575 -0.019884 2.705056 -3.203346 -1.023784 2.930128 0.262072 -0.729170 0.252807 -2.599667 0.471927 2.002974 1.353798 2.888424 -2.455913 1.174690 -2.890733 -4.472851 0.983706 -1.913807 -2.793326 4.902518 3.433275 2.140299 0.295608 -1.415922 -0.412395 0.819993 -2.478677 
Thebes -0.720201 0.394354 3.422698 0.675353 -0.912550 0.638273 3.172768 -1.561831 -2.732351 -0.549644 2.057585 0.556932 -0.972120 0.519486 -0.654942 -1.848572 0.660494 -0.464931 -0.447241 5.201110 -1.078472 1.427571 1.778352 5.180048 7.597385 -1.150769 -0.477601 -0.128721 6.364948 -0.391698 1.839464 -3.394774 2.978990 -1.101942 0.821660 0.447705 -2.785771 -3.059931 0.231863 -1.491542 -0.048467 -3.097866 1.670417 1.943627 0.029311 -1.343538 4.025088 -0.945923 2.810047 -0.742348 1.095348 -1.321346 -0.218719 1.393726 1.191142 -0.880059 -0.237782 -1.768921 1.174694 -2.003002 0.787934 0.109646 2.881178 -0.833592 0.503230 -2.252349 -5.985155 3.143497 -0.586500 -4.549713 -1.432431 0.800820 -2.121227 0.387955 -2.381306 -1.189852 0.229489 0.789431 0.355753 2.046329 1.545592 -1.173899 -0.948526 -0.879176 0.570328 -1.235574 -1.945839 -3.210431 2.894499 3.975543 -3.635150 0.866302 -0.328903 0.081951 3.650792 1.389279 1.526384 -3.811517 3.714739 0.362497 
